svm_type c_svc
kernel_type rbf
gamma 0.0078125
nr_class 2
total_sv 1968
rho 20.78409866484976
label 1 0
nr_sv 1003 965
SV
32768.0 1:0.25 2:0.0 3:0.0 4:0.5416667 5:0.5417 6:0.2174 7:0.1818 8:0.1429 9:2.2836 10:0.0435 11:0.0 12:0.0 13:0.0 14:0.8333333333333334 15:0.833 16:0.30535048347456845 17:0.4564102590084076 18:0.2663141 19:0.507082522 
20156.903609997436 1:0.2 2:0.5 3:0.0 4:1.0 5:0.9474 6:0.8889 7:0.8824 8:0.875 9:2.1927 10:0.2358 11:0.0 12:0.0 13:0.0 14:0.3333333333333333 15:0.333 16:0.7138135486311816 17:0.929729700088501 18:0.51508459 19:0.713722646 
32768.0 1:0.5 2:0.5 3:0.5 4:0.94736844 5:0.8235 6:0.8125 7:0.8 8:0.7857 9:2.5895 10:0.1497 11:0.0504 12:0.0 13:0.0 14:0.38095238095238093 15:0.381 16:0.6629598594559833 17:0.8727272748947144 18:0.49458742 19:0.639230013 
32768.0 1:0.2 2:0.0 3:0.0 4:1.0 5:0.7586 6:0.4643 7:0.3333 8:0.2308 9:3.28 10:0.2709 11:0.0 12:0.0 13:0.0 14:0.4074074074074074 15:0.407 16:0.5163114228572145 17:0.6150943636894226 18:0.41337597 19:0.512539566 
7101.197034157803 1:0.2 2:1.0 3:0.0 4:0.48 5:0.68 6:0.5417 7:0.4348 8:0.3182 9:3.1178 10:0.0417 11:0.0 12:0.0 13:0.0 14:0.47368421052631576 15:0.474 16:0.4623692747960424 17:0.6487804651260376 18:0.4413748 19:0.565516531 
32768.0 1:0.33333334 2:1.0 3:0.0 4:0.44444445 5:0.68 6:0.3333 7:0.1739 8:0.0909 9:2.7613 10:0.1087 11:0.0 12:0.0 13:0.0 14:0.7727272727272727 15:0.773 16:0.24960052405736952 17:0.41951218247413635 18:0.21904762 19:0.312614888 
32768.0 1:1.0 2:1.0 3:1.0 4:1.0 5:0.6 6:0.5 7:0.4615 8:0.4167 9:2.1511 10:0.1429 11:0.0 12:0.0 13:0.0 14:0.8888888888888888 15:0.889 16:0.47421845386342737 17:0.6571428775787354 18:0.41905637 19:0.512312114 
32768.0 1:0.14285715 2:0.33333334 3:0.0 4:0.33333334 5:0.5333 6:0.1429 7:0.0 8:0.0 9:1.9331 10:0.0 11:0.0 12:0.0 13:0.0 14:0.9333333333333333 15:0.933 16:0.07741935483870968 17:0.3333333432674408 18:0.24430147 19:0.245695353 
32768.0 1:0.5 2:0.33333334 3:0.0 4:0.29411766 5:0.4286 6:0.3077 7:0.25 8:0.1818 9:1.4237 10:0.0 11:0.0 12:0.0 13:0.0 14:1.0 15:1.0 16:0.4211169188530429 17:0.6105263233184814 18:0.31428571 19:0.386181265 
32768.0 1:0.6 2:0.5 3:0.0 4:1.0 5:0.7083 6:0.5217 7:0.4091 8:0.2857 9:2.8704 10:0.087 11:0.0 12:0.0 13:0.0 14:0.5294117647058824 15:0.529 16:0.647557370532997 17:0.508571445941925 18:0.42685897 19:0.673187971 
32768.0 1:0.33333334 2:0.0 3:0.0 4:0.5294118 5:0.4706 6:0.125 7:0.0667 8:0.0 9:1.6237 10:0.0625 11:0.0 12:0.0 13:0.0 14:0.6666666666666666 15:0.667 16:0.3152988769089921 17:0.46399998664855957 18:0.22970416 19:0.320204467 
32768.0 1:1.0 2:0.0 3:1.0 4:0.3478261 5:0.45 6:0.1053 7:0.0556 8:0.0 9:1.7081 10:0.0526 11:0.0 12:0.0 13:0.0 14:1.2307692307692308 15:1.231 16:0.1599404399479982 17:0.3777777850627899 18:0.19761905 19:0.290547401 
32768.0 1:0.2857143 2:0.4 3:0.0 4:0.5714286 5:0.68 6:0.5417 7:0.3913 8:0.2273 9:2.9451 10:0.1184 11:0.0 12:0.0 13:0.0 14:0.6521739130434783 15:0.652 16:0.4338594365133484 17:0.604651153087616 18:0.38714103 19:0.518906176 
32768.0 1:0.5 2:0.5 3:0.0 4:1.0 5:0.55 6:0.3684 7:0.2222 8:0.1176 9:1.9352 10:0.1053 11:0.0 12:0.0 13:0.0 14:0.9166666666666666 15:0.917 16:0.5156137549899511 17:0.5440000295639038 18:0.3503655 19:0.547251403 
32768.0 1:0.16666667 2:0.0 3:0.0 4:1.0 5:0.56 6:0.4167 7:0.2609 8:0.1818 9:2.1788 10:0.2083 11:0.0 12:0.0 13:0.0 14:0.9444444444444444 15:0.944 16:0.4767027040858708 17:0.545945942401886 18:0.33353276 19:0.540495574 
32768.0 1:1.0 2:0.0 3:1.0 4:0.35 5:0.4706 6:0.25 7:0.2 8:0.1429 9:1.7414 10:0.0 11:0.0 12:0.0 13:0.0 14:0.9166666666666666 15:0.917 16:0.3462962645842599 17:0.4560000002384186 18:0.27373581 19:0.36906442 
32768.0 1:0.375 2:0.6666667 3:0.25 4:0.6 5:0.6071 6:0.4444 7:0.3077 8:0.24 9:2.6527 10:0.2336 11:0.0 12:0.0 13:0.0 14:0.6 15:0.6 16:0.4161472919991931 17:0.5106382966041565 18:0.34778722 19:0.492183 
32768.0 1:0.0 2:0.0 3:0.0 4:0.6875 5:0.7692 6:0.5 7:0.3636 8:0.2 9:2.2077 10:0.0615 11:0.0 12:0.0 13:0.0 14:0.6 15:0.6 16:0.3854424135662585 17:0.5040000081062317 18:0.34658762 19:0.517618001 
32768.0 1:0.5555556 2:0.75 3:0.4 4:1.0 5:0.6667 6:0.4483 7:0.3571 8:0.2593 9:2.9797 10:0.1783 11:0.0 12:0.0 13:0.0 14:0.391304347826087 15:0.391 16:0.5484576632961129 17:0.6530612111091614 18:0.39644231 19:0.727594197 
32768.0 1:0.0 2:0.0 3:0.0 4:0.2777778 5:0.5 6:0.3636 7:0.3 8:0.2222 9:1.5835 10:0.0 11:0.0 12:0.0 13:0.0 14:0.6666666666666666 15:0.667 16:0.3998312454142623 17:0.52173912525177 18:0.31880342 19:0.591005087 
32768.0 1:0.25 2:0.0 3:0.0 4:0.5555556 5:0.8095 6:0.65 7:0.5789 8:0.5556 9:2.486 10:0.0 11:0.0 12:0.0 13:0.0 14:0.4583333333333333 15:0.458 16:0.5474889697204088 17:0.7297297120094299 18:0.38568287 19:0.6015535 
32768.0 1:0.16666667 2:0.5 3:0.0 4:0.7 5:0.5152 6:0.3125 7:0.1935 8:0.1 9:2.3013 10:0.0313 11:0.0 12:0.0 13:0.0 14:0.5833333333333334 15:0.583 16:0.48464614267438955 17:0.4340425431728363 18:0.27697988 19:0.505696952 
32768.0 1:0.0 2:0.0 3:0.0 4:0.5 5:0.6154 6:0.4 7:0.25 8:0.1739 9:2.6235 10:0.1522 11:0.0 12:0.0 13:0.0 14:0.7307692307692307 15:0.731 16:0.3707398718872926 17:0.45957446098327637 18:0.2648099 19:0.456470639 
32768.0 1:0.2 2:0.5 3:0.0 4:0.33333334 5:0.5556 6:0.2941 7:0.0625 8:0.0 9:1.7782 10:0.0913 11:0.0 12:0.0 13:0.0 14:0.7777777777777778 15:0.778 16:0.16950836490764432 17:0.35757574439048767 18:0.21624183 19:0.294761896 
32768.0 1:0.33333334 2:0.25 3:0.25 4:0.44 5:0.6087 6:0.4091 7:0.3333 8:0.25 9:2.4987 10:0.0909 11:0.0 12:0.0 13:0.0 14:0.625 15:0.625 16:0.5296696712065231 17:0.6181818246841431 18:0.37240942 19:0.612262309 
32768.0 1:0.6666667 2:0.5 3:0.0 4:0.6 5:0.8571 6:0.6923 7:0.5833 8:0.4545 9:2.1249 10:0.045 11:0.0 12:0.0 13:0.0 14:0.47368421052631576 15:0.474 16:0.5270891201160836 17:0.770370364189148 18:0.39632035 19:0.562334657 
32768.0 1:0.2 2:0.0 3:0.0 4:0.22222222 5:0.4167 6:0.1818 7:0.0 8:0.0 9:1.5008 10:0.0 11:0.0 12:0.0 13:0.0 14:0.7272727272727273 15:0.727 16:0.17735561826130808 17:0.4434782564640045 18:0.22735043 19:0.375757575 
32768.0 1:0.5 2:0.0 3:0.33333334 4:0.38235295 5:0.6 6:0.3793 7:0.25 8:0.1481 9:2.719 10:0.1438 11:0.0 12:0.0 13:0.0 14:0.6521739130434783 15:0.652 16:0.4204411034253067 17:0.5111111402511597 18:0.3313801 19:0.409891993 
32768.0 1:0.2 2:0.0 3:0.0 4:0.5714286 5:0.6111 6:0.3529 7:0.25 8:0.2 9:2.4927 10:0.0 11:0.0 12:0.0 13:0.0 14:0.6875 15:0.688 16:0.4259417976003944 17:0.5696969628334045 18:0.3372076 19:0.610727131 
32768.0 1:1.0 2:1.0 3:1.0 4:0.625 5:0.6 6:0.5172 7:0.4286 8:0.3704 9:2.5932 10:0.0 11:0.0 12:0.0 13:0.0 14:0.47058823529411764 15:0.471 16:0.6934943389354464 17:0.8864864706993103 18:0.40949261 19:0.845817626 
32768.0 1:1.0 2:1.0 3:1.0 4:1.0 5:0.6875 6:0.5484 7:0.4667 8:0.3793 9:3.1028 10:0.2124 11:0.0 12:0.0 13:0.0 14:0.7391304347826086 15:0.739 16:0.5699731605150159 17:0.7489361763000488 18:0.43759748 19:0.667188168 
32768.0 1:1.0 2:1.0 3:0.2 4:0.62068963 5:0.5714 6:0.4444 7:0.3846 8:0.36 9:2.5482 10:0.0 11:0.0 12:0.0 13:0.0 14:0.6190476190476191 15:0.619 16:0.5533759478894454 17:0.669767439365387 18:0.37783251 19:0.594011545 
32768.0 1:0.5 2:0.5 3:0.2 4:0.53571427 5:0.5 6:0.4074 7:0.3462 8:0.32 9:2.161 10:0.0 11:0.0 12:0.0 13:0.0 14:0.5263157894736842 15:0.526 16:0.6126662280204573 17:0.6666666865348816 18:0.39842949 19:0.637815475 
32768.0 1:0.4 2:0.33333334 3:0.33333334 4:0.3 5:0.4706 6:0.1875 7:0.1333 8:0.0714 9:1.8235 10:0.0 11:0.0 12:0.0 13:0.0 14:0.8461538461538461 15:0.846 16:0.23486389070196878 17:0.42222222685813904 18:0.24514104 19:0.495337993 
32768.0 1:0.75 2:0.6666667 3:0.6666667 4:0.6363636 5:0.7778 6:0.7308 7:0.72 8:0.7083 9:3.3247 10:0.2983 11:0.0 12:0.0 13:0.0 14:0.4117647058823529 15:0.412 16:0.6891399147857578 17:0.8102564215660095 18:0.55713675 19:0.698648155 
32768.0 1:0.16666667 2:1.0 3:0.0 4:0.5294118 5:0.5789 6:0.5 7:0.4118 8:0.3125 9:2.099 10:0.1111 11:0.0 12:0.0 13:0.0 14:0.6363636363636364 15:0.636 16:0.6333012163763047 17:0.730434775352478 18:0.41068296 19:0.705971777 
32768.0 1:0.6666667 2:0.5 3:0.0 4:0.45454547 5:0.5909 6:0.4286 7:0.3 8:0.1579 9:2.4153 10:0.0 11:0.0 12:0.0 13:0.0 14:0.7857142857142857 15:0.786 16:0.4113432474720847 17:0.57419353723526 18:0.32987013 19:0.473314643 
32768.0 1:0.6 2:1.0 3:0.5 4:0.5185185 5:0.7143 6:0.35 7:0.2105 8:0.1111 9:2.0058 10:0.0 11:0.0 12:0.0 13:0.0 14:0.625 15:0.625 16:0.2828468361141989 17:0.7885714173316956 18:0.19231086 19:0.52562815 
32768.0 1:1.0 2:1.0 3:1.0 4:0.59090906 5:0.7826 6:0.6364 7:0.5238 8:0.4 9:3.3334 10:0.1441 11:0.0 12:0.0 13:0.0 14:0.5 15:0.5 16:0.5437704937633967 17:0.7351351380348206 18:0.46729437 19:0.626143634 
32768.0 1:0.25 2:0.0 3:0.0 4:0.3478261 5:0.5294 6:0.25 7:0.2 8:0.1429 9:2.1774 10:0.0 11:0.0 12:0.0 13:0.0 14:0.7647058823529411 15:0.765 16:0.2760332543787579 17:0.48965516686439514 18:0.23336397 19:0.435785741 
32768.0 1:0.16666667 2:1.0 3:0.0 4:0.41666666 5:0.5 6:0.3478 7:0.2727 8:0.1905 9:2.0021 10:0.0435 11:0.0 12:0.0 13:0.0 14:0.7857142857142857 15:0.786 16:0.5534420107407174 17:0.6129032373428345 18:0.33407444 19:0.604971468 
32768.0 1:0.5 2:0.5 3:0.2 4:0.54545456 5:0.8889 6:0.7059 7:0.5625 8:0.4667 9:2.3626 10:0.0 11:0.0 12:0.0 13:0.0 14:0.45 15:0.45 16:0.5000589088280794 17:0.8258064389228821 18:0.37337387 19:0.48768273 
27961.522640199222 1:0.75 2:0.5 3:0.5 4:1.0 5:0.85 6:0.7368 7:0.6111 8:0.4706 9:3.4955 10:0.1606 11:0.0 12:0.0 13:0.0 14:0.25 15:0.25 16:0.7280474113016298 17:0.8540540337562561 18:0.52147817 19:0.723343909 
32768.0 1:0.14285715 2:0.25 3:0.0 4:0.33333334 5:0.3636 6:0.1905 7:0.1 8:0.0526 9:1.4545 10:0.0 11:0.0 12:0.0 13:0.0 14:0.6666666666666666 15:0.667 16:0.35624223072032984 17:0.5032258033752441 18:0.22256494 19:0.427461177 
32768.0 1:0.4 2:0.5 3:0.5 4:0.5416667 5:0.8421 6:0.6111 7:0.5882 8:0.5625 9:2.7252 10:0.1282 11:0.0 12:0.0 13:0.0 14:0.47619047619047616 15:0.476 16:0.5422915800567513 17:0.7272727489471436 18:0.40562865 19:0.523148119 
32768.0 1:0.4 2:0.33333334 3:0.33333334 4:0.5416667 5:0.7083 6:0.4783 7:0.3182 8:0.1905 9:3.0393 10:0.1739 11:0.0 12:0.0 13:0.0 14:0.8823529411764706 15:0.882 16:0.4298237034221648 17:0.6270270347595215 18:0.36679487 19:0.439711422 
32768.0 1:0.25 2:1.0 3:0.0 4:0.4814815 5:0.5 6:0.3478 7:0.2273 8:0.0952 9:2.0433 10:0.0435 11:0.0 12:0.0 13:0.0 14:1.0588235294117647 15:1.059 16:0.3767946671080412 17:0.6057142615318298 18:0.29711538 19:0.440574884 
32768.0 1:0.2 2:1.0 3:0.0 4:0.53846157 5:0.7778 6:0.5882 7:0.5 8:0.4 9:2.4765 10:0.0 11:0.0 12:0.0 13:0.0 14:0.4782608695652174 15:0.478 16:0.546826224005642 17:0.7200000286102295 18:0.38214125 19:0.4961752 
14730.338723293735 1:0.0 2:0.0 3:0.0 4:0.3888889 5:0.5333 6:0.3571 7:0.2308 8:0.0833 9:1.9736 10:0.0 11:0.0 12:0.0 13:0.0 14:0.5 15:0.5 16:0.4967163743059136 17:0.6320000290870667 18:0.33976716 19:0.502184689 
32768.0 1:0.33333334 2:0.0 3:0.0 4:0.4 5:0.5 6:0.2105 7:0.0556 8:0.0 9:1.9053 10:0.1013 11:0.0 12:0.0 13:0.0 14:0.7777777777777778 15:0.778 16:0.21017263403407213 17:0.4228571355342865 18:0.22485119 19:0.434269428 
32768.0 1:0.2 2:0.0 3:0.0 4:0.33333334 5:0.5 6:0.2105 7:0.1111 8:0.0588 9:2.124 10:0.0 11:0.0 12:0.0 13:0.0 14:0.9285714285714286 15:0.929 16:0.22620047492699105 17:0.4482758641242981 18:0.23392857 19:0.307241678 
32768.0 1:0.25 2:0.0 3:0.0 4:0.7037037 5:0.5161 6:0.3667 7:0.2414 8:0.1429 9:2.0649 10:0.1918 11:0.0 12:0.0 13:0.0 14:0.9444444444444444 15:0.944 16:0.5233744319152367 17:0.6702702641487122 18:0.31050678 19:0.573164403 
32768.0 1:0.6666667 2:1.0 3:0.6666667 4:0.6451613 5:0.6875 6:0.6129 7:0.5667 8:0.5172 9:3.2738 10:0.0 11:0.0 12:0.0 13:0.0 14:0.43478260869565216 15:0.435 16:0.7299444164679529 17:0.800000011920929 18:0.46676747 19:0.753156483 
32768.0 1:0.33333334 2:0.0 3:0.0 4:0.26086956 5:0.5 6:0.3077 7:0.0833 8:0.0 9:1.7434 10:0.0 11:0.0 12:0.0 13:0.0 14:0.6875 15:0.688 16:0.27129216031778963 17:0.5241379141807556 18:0.24774436 19:0.3867881 
32768.0 1:0.33333334 2:1.0 3:0.0 4:0.5 5:0.4783 6:0.2727 7:0.1905 8:0.15 9:1.8261 10:0.0455 11:0.0 12:0.0 13:0.0 14:0.8571428571428571 15:0.857 16:0.3138370913740007 17:0.7103448510169983 18:0.26768116 19:0.547033131 
32768.0 1:1.0 2:0.5 3:0.5 4:0.88235295 5:0.8235 6:0.75 7:0.7333 8:0.7143 9:2.6415 10:0.1417 11:0.0 12:0.0 13:0.0 14:0.3888888888888889 15:0.389 16:0.5962082909436145 17:0.8689655065536499 18:0.47194989 19:0.676918805 
32768.0 1:0.5 2:0.4 3:0.75 4:0.6 5:0.75 6:0.6522 7:0.5455 8:0.4762 9:3.3758 10:0.0432 11:0.0 12:0.0 13:0.0 14:0.5 15:0.5 16:0.6126662280204573 17:0.739534854888916 18:0.46743083 19:0.682699859 
32768.0 1:1.0 2:0.0 3:0.0 4:0.6 5:0.5652 6:0.3636 7:0.1905 8:0.1 9:2.3994 10:0.0455 11:0.0 12:0.0 13:0.0 14:0.5789473684210527 15:0.579 16:0.49735106136896035 17:0.5641025900840759 18:0.31938406 19:0.53212285 
32768.0 1:1.0 2:0.5 3:0.5 4:1.0 5:0.913 6:0.8636 7:0.8571 8:0.85 9:2.9985 10:0.3095 11:0.0 12:0.0 13:0.0 14:0.36 15:0.36 16:0.6765036854762994 17:0.8864864706993103 18:0.51193105 19:0.670339167 
32768.0 1:0.4 2:0.33333334 3:0.33333334 4:0.61904764 5:0.619 6:0.5 7:0.4211 8:0.3333 9:2.6279 10:0.05 11:0.0 12:0.0 13:0.0 14:0.47368421052631576 15:0.474 16:0.5680982488027955 17:0.6399999856948853 18:0.43923445 19:0.529957414 
32768.0 1:0.6666667 2:0.5 3:0.5 4:0.52380955 5:0.52 6:0.4583 7:0.3913 8:0.3636 9:2.1255 10:0.0 11:0.0 12:0.0 13:0.0 14:0.6428571428571429 15:0.643 16:0.5790357634229341 17:0.7724137902259827 18:0.34240942 19:0.65271455 
32768.0 1:0.5 2:0.25 3:0.25 4:0.5294118 5:0.5652 6:0.3636 7:0.3333 8:0.3 9:2.1213 10:0.0 11:0.0 12:0.0 13:0.0 14:1.0909090909090908 15:1.091 16:0.47321500154334406 17:0.6086956262588501 18:0.31983696 19:0.628266156 
32768.0 1:0.0 2:0.0 3:0.0 4:0.67741936 5:0.5938 6:0.4194 7:0.3 8:0.2414 9:2.7858 10:0.1528 11:0.0 12:0.0 13:0.0 14:0.56 15:0.56 16:0.4967163743059136 17:0.614545464515686 18:0.33905693 19:0.506512165 
32768.0 1:0.2 2:0.33333334 3:0.0 4:0.6363636 5:0.5 6:0.3333 7:0.2 8:0.1053 9:1.8619 10:0.0952 11:0.1 12:0.0 13:0.0 14:0.9333333333333333 15:0.933 16:0.521816752984105 17:0.5161290168762207 18:0.30142457 19:0.56479305 
6892.198810463357 1:0.33333334 2:1.0 3:0.0 4:0.73333335 5:0.8333 6:0.5455 7:0.3 8:0.1111 9:1.9424 10:0.109 11:0.0 12:0.0 13:0.0 14:0.6666666666666666 15:0.667 16:0.3174382425355716 17:0.43478259444236755 18:0.33265857 19:0.540067852 
32768.0 1:0.5 2:0.0 3:0.33333334 4:0.47058824 5:0.5714 6:0.0769 7:0.0 8:0.0 9:2.1756 10:0.0 11:0.0 12:0.0 13:0.0 14:0.8461538461538461 15:0.846 16:0.17738848794232528 17:0.3919999897480011 18:0.22410714 19:0.321820885 
14438.58484670666 1:0.4 2:1.0 3:0.33333334 4:0.625 5:0.5882 6:0.375 7:0.2 8:0.0714 9:2.2396 10:0.0 11:0.0 12:0.0 13:0.0 14:0.6666666666666666 15:0.667 16:0.13333333333333336 17:0.5839999914169312 18:0.34253526 19:0.303779751 
32768.0 1:0.0 2:0.0 3:0.0 4:0.52380955 5:0.6667 6:0.6471 7:0.625 8:0.6 9:2.6667 10:0.0 11:0.0 12:0.0 13:0.0 14:0.4 15:0.4 16:0.7115712108641814 17:0.8129032254219055 18:0.5127193 19:0.70427984 
18951.842921497813 1:1.0 2:0.75 3:0.75 4:1.0 5:0.8696 6:0.7273 7:0.7143 8:0.7 9:3.1385 10:0.3541 11:0.0 12:0.0 13:0.0 14:0.4090909090909091 15:0.409 16:0.6316753782795645 17:0.7567567825317383 18:0.48451087 19:0.649204433 
32768.0 1:0.33333334 2:1.0 3:0.0 4:0.64 5:0.619 6:0.439 7:0.25 8:0.1282 9:2.5742 10:0.3783 11:0.0 12:0.0 13:0.0 14:0.7222222222222222 15:0.722 16:0.47081748551690944 17:0.692307710647583 18:0.327018 19:0.679709911 
32768.0 1:0.5 2:0.0 3:0.5 4:0.2 5:0.4375 6:0.0667 7:0.0 8:0.0 9:1.5857 10:0.0 11:0.0 12:0.0 13:0.0 14:0.875 15:0.875 16:0.07272727272727274 17:0.4000000059604645 18:0.15835084 19:0.281066447 
32768.0 1:0.33333334 2:0.0 3:0.0 4:0.5 5:0.7647 6:0.6875 7:0.6 8:0.5 9:2.9567 10:0.0 11:0.0 12:0.0 13:0.0 14:0.47058823529411764 15:0.471 16:0.5449748361627617 17:0.770370364189148 18:0.43609375 19:0.479539007 
32768.0 1:1.0 2:0.0 3:0.5 4:0.3888889 5:0.5333 6:0.2143 7:0.1538 8:0.0833 9:2.0306 10:0.0 11:0.0 12:0.0 13:0.0 14:0.75 15:0.75 16:0.332716800389742 17:0.5040000081062317 18:0.27518382 19:0.383104414 
32768.0 1:1.0 2:0.5 3:0.0 4:0.88 5:0.6957 6:0.3182 7:0.1905 8:0.1 9:2.1581 10:0.1249 11:0.0 12:0.0 13:0.0 14:0.64 15:0.64 16:0.39066468948446287 17:0.5555555820465088 18:0.26459502 19:0.461952776 
32768.0 1:0.0 2:0.0 3:0.0 4:0.77272725 5:0.6818 6:0.4762 7:0.4 8:0.3684 9:2.2831 10:0.1181 11:0.0 12:0.0 13:0.0 14:0.6363636363636364 15:0.636 16:0.4001203776463649 17:0.5600000023841858 18:0.30603741 19:0.488732219 
11926.639561315904 1:1.0 2:1.0 3:1.0 4:1.0 5:0.6774 6:0.5333 7:0.4483 8:0.3571 9:2.8235 10:0.2057 11:0.0 12:0.0 13:0.0 14:0.7647058823529411 15:0.765 16:0.5770538608296198 17:0.7028571367263794 18:0.43583517 19:0.681895435 
32768.0 1:0.4 2:1.0 3:0.33333334 4:0.6 5:0.75 6:0.5263 7:0.3889 8:0.2941 9:2.1129 10:0.0653 11:0.0 12:0.0 13:0.0 14:0.4782608695652174 15:0.478 16:0.4716335975990855 17:0.6342856884002686 18:0.35242347 19:0.448489517 
32768.0 1:0.4 2:0.25 3:0.0 4:0.54545456 5:0.619 6:0.45 7:0.3684 8:0.2778 9:2.5444 10:0.0928 11:0.0 12:0.0 13:0.0 14:0.7777777777777778 15:0.778 16:0.377062307771043 17:0.5257142782211304 18:0.30354532 19:0.456548423 
32768.0 1:0.5 2:0.5 3:0.0 4:0.5625 5:0.6786 6:0.5185 7:0.4615 8:0.4 9:2.9621 10:0.1575 11:0.0 12:0.0 13:0.0 14:0.6296296296296297 15:0.63 16:0.4326485966673686 17:0.6117647290229797 18:0.3544115 19:0.570551753 
32768.0 1:0.5 2:1.0 3:1.0 4:0.58064514 5:0.6667 6:0.5 7:0.4839 8:0.4667 9:3.079 10:0.0 11:0.0 12:0.0 13:0.0 14:0.5909090909090909 15:0.591 16:0.6577619650072907 17:0.7955555319786072 18:0.45147544 19:0.704260528 
32768.0 1:0.25 2:1.0 3:0.0 4:0.8888889 5:0.6667 6:0.4348 7:0.3636 8:0.2857 9:2.7146 10:0.1304 11:0.0 12:0.0 13:0.0 14:0.8 15:0.8 16:0.5997468681213933 17:0.6709677577018738 18:0.38682692 19:0.632184863 
32768.0 1:1.0 2:0.0 3:1.0 4:0.47368422 5:0.6471 6:0.5625 7:0.4 8:0.2857 9:2.5882 10:0.0 11:0.0 12:0.0 13:0.0 14:0.5714285714285714 15:0.571 16:0.580174547587229 17:0.5931034684181213 18:0.44147747 19:0.52955842 
32768.0 1:1.0 2:0.0 3:1.0 4:0.55172414 5:0.5 6:0.3448 7:0.25 8:0.1852 9:2.2297 10:0.0 11:0.0 12:0.0 13:0.0 14:0.5714285714285714 15:0.571 16:0.49461759499681707 17:0.6634146571159363 18:0.30851806 19:0.605335653 
6141.64034232642 1:1.0 2:1.0 3:1.0 4:0.57894737 5:0.6842 6:0.6111 7:0.5294 8:0.4375 9:2.6731 10:0.0 11:0.0 12:0.0 13:0.0 14:0.46153846153846156 15:0.462 16:0.7544197947531452 17:0.7925925850868225 18:0.48580827 19:0.709892809 
18268.090647920584 1:0.4 2:0.6666667 3:0.25 4:0.61904764 5:0.875 6:0.8 7:0.7857 8:0.7692 9:1.7119 10:0.0 11:0.0 12:0.0 13:0.0 14:0.3157894736842105 15:0.316 16:0.70300951737141 17:0.8645161390304565 18:0.42081972 19:0.657034874 
32768.0 1:0.33333334 2:1.0 3:0.0 4:0.5 5:0.7333 6:0.5 7:0.3077 8:0.1667 9:2.8059 10:0.0 11:0.0 12:0.0 13:0.0 14:0.6428571428571429 15:0.643 16:0.42259791787056294 17:0.5793103575706482 18:0.31798942 19:0.55095619 
32768.0 1:1.0 2:1.0 3:1.0 4:0.5652174 5:0.72 6:0.625 7:0.5217 8:0.5 9:3.217 10:0.0417 11:0.0 12:0.0 13:0.0 14:0.35294117647058826 15:0.353 16:0.7220097745976645 17:0.9696969985961914 18:0.48864672 19:0.838845253 
32768.0 1:0.6666667 2:0.5 3:0.0 4:0.88 5:0.5294 6:0.303 7:0.1875 8:0.129 9:2.255 10:0.0961 11:0.0 12:0.0 13:0.0 14:0.7142857142857143 15:0.714 16:0.5056341339256295 17:0.6000000238418579 18:0.30046791 19:0.536183298 
30400.803527483815 1:0.42857143 2:1.0 3:0.25 4:0.6785714 5:0.8276 6:0.6071 7:0.4444 8:0.3462 9:2.5281 10:0.1425 11:0.0239 12:0.0249 13:0.0 14:0.44 15:0.44 16:0.5213062938260083 17:0.7155555486679077 18:0.35892241 19:0.701360524 
32768.0 1:0.125 2:0.0 3:0.0 4:0.53571427 5:0.5806 6:0.5333 7:0.5172 8:0.5 9:2.436 10:0.1585 11:0.0 12:0.0 13:0.0 14:0.6111111111111112 15:0.611 16:0.6927555786111742 17:0.800000011920929 18:0.43897616 19:0.703500271 
32768.0 1:0.16666667 2:0.0 3:0.0 4:0.8888889 5:0.72 6:0.5833 7:0.4783 8:0.4091 9:3.1146 10:0.0759 11:0.0 12:0.0 13:0.0 14:0.5384615384615384 15:0.538 16:0.5768355633417512 17:0.6627451181411743 18:0.43547991 19:0.616243899 
32768.0 1:0.4 2:0.0 3:0.0 4:0.56 5:0.56 6:0.4583 7:0.3913 8:0.3182 9:2.3797 10:0.0417 11:0.0 12:0.0 13:0.0 14:0.5 15:0.5 16:0.546524897582436 17:0.6871795058250427 18:0.37314815 19:0.552952349 
17961.65967481514 1:0.4 2:1.0 3:0.0 4:0.54545456 5:0.5789 6:0.3889 7:0.2353 8:0.125 9:2.2488 10:0.1111 11:0.0 12:0.0 13:0.0 14:0.5294117647058824 15:0.529 16:0.4477330243980884 17:0.5542857050895691 18:0.34620927 19:0.46021238 
32768.0 1:0.33333334 2:0.6666667 3:0.25 4:0.4642857 5:0.68 6:0.375 7:0.3043 8:0.2727 9:3.0962 10:0.0414 11:0.0 12:0.0 13:0.0 14:0.6666666666666666 15:0.667 16:0.3542189296087218 17:0.5441860556602478 18:0.3163148 19:0.454454184 
32768.0 1:0.0 2:0.0 3:0.0 4:0.25 5:0.5385 6:0.1667 7:0.0909 8:0.0 9:1.3383 10:0.0533 11:0.0 12:0.0 13:0.0 14:0.8 15:0.8 16:0.16536214977674388 17:0.46399998664855957 18:0.20690476 19:0.200549439 
32768.0 1:0.33333334 2:0.0 3:0.0 4:0.27272728 5:0.4375 6:0.0667 7:0.0 8:0.0 9:1.7093 10:0.0 11:0.0 12:0.0 13:0.0 14:0.7857142857142857 15:0.786 16:0.18307765688586689 17:0.4000000059604645 18:0.18474265 19:0.314611316 
32768.0 1:0.25 2:0.0 3:0.0 4:0.71428573 5:0.625 6:0.5217 7:0.4091 8:0.3333 9:2.7823 10:0.087 11:0.0 12:0.0 13:0.0 14:0.7058823529411765 15:0.706 16:0.4356321318467887 17:0.6594594717025757 18:0.38721154 19:0.518089354 
32768.0 1:0.33333334 2:0.0 3:0.0 4:0.44444445 5:0.6923 6:0.4167 7:0.2727 8:0.2 9:2.0892 10:0.0 11:0.0 12:0.0 13:0.0 14:0.6666666666666666 15:0.667 16:0.36691105829623544 17:0.6000000238418579 18:0.3041498 19:0.52290684 
32768.0 1:0.2857143 2:1.0 3:0.2 4:0.6 5:0.8 6:0.5833 7:0.4348 8:0.3182 9:2.8291 10:0.0903 11:0.0 12:0.0 13:0.0 14:0.5 15:0.5 16:0.5111888656455228 17:0.6780487895011902 18:0.35445135 19:0.506679475 
32768.0 1:0.5 2:0.5 3:0.5 4:1.0 5:0.6071 6:0.5185 7:0.4615 8:0.4 9:2.381 10:0.2593 11:0.0 12:0.0 13:0.0 14:0.47368421052631576 15:0.474 16:0.7242642167384806 17:0.8205128312110901 18:0.45240639 19:0.715107203 
32768.0 1:0.33333334 2:1.0 3:0.0 4:0.3809524 5:0.6471 6:0.5 7:0.4667 8:0.4286 9:2.6613 10:0.0 11:0.0 12:0.0 13:0.0 14:0.4666666666666667 15:0.467 16:0.48550936943160417 17:0.6580645442008972 18:0.36527778 19:0.616355121 
32768.0 1:0.22222222 2:1.0 3:0.0 4:0.44444445 5:0.5833 6:0.3478 7:0.2727 8:0.1905 9:2.5877 10:0.0423 11:0.0 12:0.0 13:0.0 14:0.5238095238095238 15:0.524 16:0.41491742166250184 17:0.5945945978164673 18:0.31309524 19:0.4607023 
32768.0 1:0.4 2:0.0 3:0.0 4:0.4117647 5:0.6667 6:0.3636 7:0.3 8:0.2222 9:2.1114 10:0.0 11:0.0 12:0.0 13:0.0 14:0.6153846153846154 15:0.615 16:0.3527091583728573 17:0.634782612323761 18:0.3107089 19:0.403594047 
32768.0 1:1.0 2:1.0 3:1.0 4:0.41666666 5:0.4545 6:0.2857 7:0.25 8:0.2105 9:1.7759 10:0.0 11:0.0 12:0.0 13:0.0 14:0.8571428571428571 15:0.857 16:0.48843602661609636 17:0.6000000238418579 18:0.28013834 19:0.588064969 
32768.0 1:1.0 2:1.0 3:0.0 4:0.27272728 5:0.5714 6:0.1667 7:0.0 8:0.0 9:1.3879 10:0.0 11:0.0 12:0.0 13:0.0 14:0.625 15:0.625 16:0.25038440225125846 17:0.5538461804389954 18:0.27150974 19:0.53766036 
32768.0 1:0.25 2:0.0 3:0.0 4:0.75 5:0.8 6:0.5263 7:0.3889 8:0.2353 9:2.971 10:0.0427 11:0.0 12:0.0 13:0.0 14:0.6842105263157895 15:0.684 16:0.40022138799946483 17:0.4121212065219879 18:0.37148033 19:0.407677263 
32768.0 1:0.33333334 2:1.0 3:1.0 4:0.4 5:0.4706 6:0.125 7:0.0 8:0.0 9:1.7275 10:0.0616 11:0.0 12:0.0 13:0.0 14:0.6428571428571429 15:0.643 16:0.18307765688586689 17:0.5034482479095459 18:0.19395833 19:0.296092778 
32768.0 1:0.5 2:1.0 3:0.2 4:0.39285713 5:0.8148 6:0.6923 7:0.64 8:0.625 9:3.4596 10:0.3077 11:0.08 12:0.0 13:0.0 14:0.7058823529411765 15:0.706 16:0.45802572521185264 17:0.7692307829856873 18:0.30430199 19:0.538865805 
5965.2856405763705 1:0.0 2:0.5 3:0.0 4:0.76 5:0.6296 6:0.3462 7:0.2 8:0.0833 9:2.6416 10:0.2438 11:0.0 12:0.0 13:0.0 14:0.6521739130434783 15:0.652 16:0.3278409242123276 17:0.5116279125213623 18:0.30950928 19:0.447859675 
32768.0 1:1.0 2:0.0 3:0.0 4:0.30769232 5:0.7 6:0.4444 7:0.25 8:0.0 9:1.9378 10:0.0 11:0.0 12:0.0 13:0.0 14:0.6 15:0.6 16:0.08780487804878051 17:0.5529412031173706 18:0.29220085 19:0.215778098 
32768.0 1:0.0 2:0.0 3:0.0 4:0.3529412 5:0.5833 6:0.0909 7:0.0 8:0.0 9:2.1011 10:0.0 11:0.0 12:0.0 13:0.0 14:0.75 15:0.75 16:0.21538547868925514 17:0.40869563817977905 18:0.2232906 19:0.283452064 
32768.0 1:0.25 2:0.5 3:0.2 4:0.65384614 5:0.6176 6:0.5152 7:0.5 8:0.4839 9:2.7946 10:0.1515 11:0.0 12:0.0 13:0.0 14:0.7222222222222222 15:0.722 16:0.5945947171038014 17:0.7674418687820435 18:0.4385166 19:0.649512053 
32768.0 1:0.6 2:0.0 3:0.0 4:0.36 5:0.6 6:0.3158 7:0.2222 8:0.1765 9:2.4932 10:0.0526 11:0.0 12:0.0 13:0.0 14:0.5882352941176471 15:0.588 16:0.3653438299808403 17:0.508571445941925 18:0.329329 19:0.493940622 
32768.0 1:0.33333334 2:0.33333334 3:0.33333334 4:0.39473686 5:0.4688 6:0.2903 7:0.2 8:0.1379 9:2.291 10:0.0323 11:0.0 12:0.0 13:0.0 14:0.8148148148148148 15:0.815 16:0.3674124957860789 17:0.46037736535072327 18:0.26302083 19:0.471781492 
32768.0 1:0.5714286 2:1.0 3:0.2 4:0.5 5:0.625 6:0.5217 7:0.4545 8:0.381 9:2.8239 10:0.0435 11:0.0 12:0.0 13:0.0 14:0.4090909090909091 15:0.409 16:0.5977143364365772 17:0.7066666483879089 18:0.41804487 19:0.722127438 
32768.0 1:0.4 2:0.33333334 3:0.33333334 4:0.5555556 5:0.65 6:0.4737 7:0.4444 8:0.4118 9:2.5069 10:0.0 11:0.0 12:0.0 13:0.0 14:0.6666666666666666 15:0.667 16:0.6216155867006026 17:0.7279999852180481 18:0.41390693 19:0.690248668 
32768.0 1:0.2857143 2:0.33333334 3:0.33333334 4:0.5 5:0.75 6:0.5652 7:0.5 8:0.4286 9:3.3554 10:0.0435 11:0.0 12:0.0 13:0.0 14:0.5 15:0.5 16:0.5097848379031845 17:0.6181818246841431 18:0.46730769 19:0.471132547 
32768.0 1:0.2 2:0.33333334 3:0.0 4:0.47058824 5:0.625 6:0.2667 7:0.2143 8:0.1538 9:2.4375 10:0.0667 11:0.0 12:0.0 13:0.0 14:0.8333333333333334 15:0.833 16:0.2731477433080647 17:0.4740740656852722 18:0.25863095 19:0.454534739 
32768.0 1:0.2 2:0.0 3:0.0 4:0.7647059 5:0.8462 6:0.75 7:0.7273 8:0.7 9:1.2756 10:0.0948 11:0.0 12:0.0 13:0.0 14:0.4444444444444444 15:0.444 16:0.5881189709863911 17:0.8320000171661377 18:0.394828 19:0.56113863 
32768.0 1:0.0 2:1.0 3:0.0 4:0.33333334 5:0.6111 6:0.4118 7:0.3125 8:0.2 9:2.4144 10:0.0 11:0.0 12:0.0 13:0.0 14:0.6470588235294118 15:0.647 16:0.351531144003627 17:0.6580645442008972 18:0.34376661 19:0.459671497 
32768.0 1:0.5 2:0.5 3:0.5 4:1.0 5:1.0 6:0.7083 7:0.5652 8:0.4091 9:3.5834 10:0.1666 11:0.0336 12:0.0 13:0.0 14:0.4 15:0.4 16:0.5372646497594575 17:0.8307692408561707 18:0.43556103 19:0.599204957 
32768.0 1:0.33333334 2:1.0 3:0.0 4:0.9411765 5:0.6364 6:0.5238 7:0.45 8:0.4211 9:2.3636 10:0.0952 11:0.1 12:0.0 13:0.0 14:0.5714285714285714 15:0.571 16:0.6642379524463453 17:0.8206896781921387 18:0.42160738 19:0.692826569 
32768.0 1:0.5 2:1.0 3:0.33333334 4:0.55 5:0.6667 6:0.5882 7:0.5 8:0.4 9:2.6046 10:0.0 11:0.0 12:0.0 13:0.0 14:0.5 15:0.5 16:0.718495042622043 17:0.7793103456497192 18:0.47178363 19:0.720174253 
32768.0 1:1.0 2:0.33333334 3:0.33333334 4:1.0 5:0.7 6:0.6316 7:0.6111 8:0.5882 9:2.7735 10:0.1579 11:0.0 12:0.0 13:0.0 14:0.4666666666666667 15:0.467 16:0.6444099538658574 17:0.8645161390304565 18:0.47408009 19:0.76087141 
29507.762604287876 1:0.4 2:0.0 3:0.0 4:0.73913044 5:0.8696 6:0.7727 7:0.7619 8:0.75 9:2.9424 10:0.135 11:0.0354 12:0.0 13:0.0 14:0.3181818181818182 15:0.318 16:0.6784078150765186 17:0.8108108043670654 18:0.48394017 19:0.686803341 
32768.0 1:0.0 2:0.0 3:0.0 4:0.8125 5:0.8824 6:0.6875 7:0.6667 8:0.6429 9:3.5577 10:0.0 11:0.0 12:0.0 13:0.0 14:0.4666666666666667 15:0.467 16:0.5116948850263866 17:0.7586206793785095 18:0.55284658 19:0.57295233 
32768.0 1:0.33333334 2:1.0 3:0.0 4:0.3888889 5:0.625 6:0.3333 7:0.2143 8:0.1538 9:2.3923 10:0.0656 11:0.0 12:0.0 13:0.0 14:0.5714285714285714 15:0.571 16:0.276542939518516 17:0.6399999856948853 18:0.31629073 19:0.309892923 
32768.0 1:0.5 2:0.0 3:0.0 4:0.5416667 5:0.4762 6:0.3 7:0.1579 8:0.0556 9:1.9963 10:0.1 11:0.0 12:0.0 13:0.0 14:0.8235294117647058 15:0.824 16:0.3134931630338903 17:0.48571428656578064 18:0.28086768 19:0.400855571 
32768.0 1:0.6666667 2:1.0 3:0.5 4:0.73913044 5:0.5862 6:0.5 7:0.4444 8:0.3846 9:2.4902 10:0.0 11:0.0 12:0.0 13:0.0 14:0.5294117647058824 15:0.529 16:0.712659401135919 17:0.8971428275108337 18:0.42702062 19:0.825236499 
32768.0 1:0.33333334 2:0.0 3:0.0 4:0.36842105 5:0.6154 6:0.3333 7:0.2727 8:0.2 9:2.2054 10:0.0 11:0.0 12:0.0 13:0.0 14:0.5714285714285714 15:0.571 16:0.37956316375472626 17:0.5759999752044678 18:0.30946994 19:0.47397694 
32768.0 1:1.0 2:0.6666667 3:0.6666667 4:0.92 5:0.6111 6:0.5429 7:0.5294 8:0.5152 9:2.5977 10:0.1429 11:0.0 12:0.0 13:0.0 14:0.631578947368421 15:0.632 16:0.7291206387911225 17:0.892307698726654 18:0.43173107 19:0.799665868 
32768.0 1:0.0 2:0.0 3:0.0 4:0.6333333 5:0.5806 6:0.4333 7:0.3448 8:0.2857 9:2.6266 10:0.0 11:0.0 12:0.0 13:0.0 14:0.6666666666666666 15:0.667 16:0.5811410262075417 17:0.7302325367927551 18:0.35741233 19:0.6557886 
32768.0 1:1.0 2:1.0 3:1.0 4:1.0 5:0.6333 6:0.4483 7:0.3929 8:0.3333 9:2.5769 10:0.2759 11:0.0 12:0.0 13:0.0 14:0.8181818181818182 15:0.818 16:0.4918531414744823 17:0.6399999856948853 18:0.40311987 19:0.529114544 
32768.0 1:0.25 2:0.5 3:0.0 4:0.5 5:0.6522 6:0.4091 7:0.381 8:0.35 9:2.9411 10:0.0 11:0.0 12:0.0 13:0.0 14:0.5 15:0.5 16:0.47972741010013836 17:0.5951219797134399 18:0.38452381 19:0.558865488 
32768.0 1:0.0 2:0.0 3:0.0 4:0.45 5:0.6 6:0.1429 7:0.0769 8:0.0 9:2.2957 10:0.0 11:0.0 12:0.0 13:0.0 14:0.875 15:0.875 16:0.18776311189769831 17:0.3481481373310089 18:0.21895833 19:0.291517913 
32768.0 1:0.2 2:0.5 3:0.0 4:0.3846154 5:0.5 6:0.1579 7:0.1111 8:0.0588 9:2.085 10:0.0 11:0.0 12:0.0 13:0.0 14:0.7058823529411765 15:0.706 16:0.3108920645693241 17:0.47999998927116394 18:0.23338745 19:0.448578954 
32768.0 1:1.0 2:0.33333334 3:0.33333334 4:0.7083333 5:0.6364 6:0.4762 7:0.45 8:0.4211 9:2.175 10:0.0345 11:0.0 12:0.0 13:0.0 14:0.6086956521739131 15:0.609 16:0.44816249485994236 17:0.6756756901741028 18:0.30501835 19:0.48589465 
32768.0 1:0.2 2:0.0 3:0.0 4:0.5416667 5:0.6 6:0.3158 7:0.1667 8:0.1176 9:2.0491 10:0.1103 11:0.0 12:0.0 13:0.0 14:0.631578947368421 15:0.632 16:0.2784005845255275 17:0.5199999809265137 18:0.27880952 19:0.399171829 
32768.0 1:0.33333334 2:0.25 3:0.25 4:1.0 5:0.7143 6:0.6296 7:0.6154 8:0.6 9:2.9184 10:0.2502 11:0.0769 12:0.0 13:0.0 14:0.45454545454545453 15:0.455 16:0.7498494508172777 17:0.8088889122009277 18:0.49891215 19:0.809898436 
32768.0 1:0.2857143 2:0.33333334 3:0.33333334 4:0.53846157 5:0.64 6:0.4167 7:0.3478 8:0.3182 9:2.7311 10:0.0 11:0.0 12:0.0 13:0.0 14:0.5555555555555556 15:0.556 16:0.5626275143088795 17:0.6972972750663757 18:0.38205128 19:0.610200107 
32768.0 1:0.6666667 2:0.5 3:0.5 4:0.5 5:0.6667 6:0.4118 7:0.25 8:0.2 9:2.4271 10:0.0588 11:0.0 12:0.0 13:0.0 14:0.8 15:0.8 16:0.39679780316946445 17:0.8285714387893677 18:0.3628655 19:0.688346088 
32768.0 1:0.75 2:0.0 3:0.0 4:0.36363637 5:0.4444 6:0.1176 7:0.0 8:0.0 9:1.6366 10:0.0 11:0.0 12:0.0 13:0.0 14:0.9230769230769231 15:0.923 16:0.2627157925425902 17:0.40740740299224854 18:0.19152047 19:0.400002837 
32768.0 1:0.33333334 2:0.0 3:0.33333334 4:0.46153846 5:0.4783 6:0.2273 7:0.0952 8:0.05 9:1.9881 10:0.0455 11:0.0 12:0.0 13:0.0 14:0.75 15:0.75 16:0.4164465794048486 17:0.5542857050895691 18:0.23552536 19:0.559610307 
32768.0 1:1.0 2:0.33333334 3:0.33333334 4:1.0 5:0.7 6:0.6207 7:0.5357 8:0.4444 9:2.9174 10:0.2759 11:0.0357 12:0.0 13:0.0 14:0.7777777777777778 15:0.778 16:0.6200477488399809 17:0.8216215968132019 18:0.45791331 19:0.704836369 
32768.0 1:0.33333334 2:1.0 3:0.0 4:0.47368422 5:0.5714 6:0.3077 7:0.0833 8:0.0 9:1.771 10:0.0 11:0.0 12:0.0 13:0.0 14:0.6666666666666666 15:0.667 16:0.3290227570856459 17:0.4000000059604645 18:0.25951705 19:0.446849197 
32768.0 1:1.0 2:1.0 3:1.0 4:1.0 5:0.7188 6:0.6452 7:0.6 8:0.5517 9:3.0767 10:0.1613 11:0.0667 12:0.0 13:0.0 14:0.47619047619047616 15:0.476 16:0.792365352782929 17:0.9756097793579102 18:0.44540998 19:0.907611907 
32768.0 1:0.25 2:0.0 3:0.0 4:0.3888889 5:0.5333 6:0.0714 7:0.0 8:0.0 9:1.912 10:0.0 11:0.0 12:0.0 13:0.0 14:1.1818181818181819 15:1.182 16:0.11764705882352944 17:0.3440000116825104 18:0.21060049 19:0.210366502 
32768.0 1:0.0 2:0.0 3:0.0 4:0.75 5:0.5556 6:0.4118 7:0.3125 8:0.2667 9:1.9447 10:0.1176 11:0.0 12:0.0 13:0.0 14:0.8333333333333334 15:0.833 16:0.4394139300045337 17:0.6480000019073486 18:0.35175439 19:0.567167819 
32768.0 1:0.0 2:0.5 3:0.0 4:0.5882353 5:0.6061 6:0.3125 7:0.2258 8:0.1333 9:2.6803 10:0.1034 11:0.0 12:0.0 13:0.0 14:0.7407407407407407 15:0.741 16:0.3522958360529531 17:0.3927272856235504 18:0.29091062 19:0.411158592 
32768.0 1:0.4 2:0.33333334 3:0.33333334 4:0.36363637 5:0.4737 6:0.3333 7:0.2941 8:0.25 9:1.7454 10:0.0556 11:0.0 12:0.0 13:0.0 14:0.8461538461538461 15:0.846 16:0.43876613063689035 17:0.5481481552124023 18:0.30989975 19:0.503665745 
32768.0 1:0.0 2:0.0 3:0.0 4:0.4375 5:0.6154 6:0.25 7:0.1818 8:0.1 9:2.2142 10:0.0 11:0.0 12:0.0 13:0.0 14:0.6666666666666666 15:0.667 16:0.2838594195162241 17:0.469565212726593 18:0.31207074 19:0.340613812 
32768.0 1:0.75 2:0.0 3:0.0 4:0.4814815 5:0.5 6:0.0476 7:0.0 8:0.0 9:2.0627 10:0.0472 11:0.0 12:0.0 13:0.0 14:0.8 15:0.8 16:0.18857102153622138 17:0.3365853726863861 18:0.17221344 19:0.32241714 
32768.0 1:0.6666667 2:0.0 3:0.0 4:0.35 5:0.5 6:0.1333 7:0.0714 8:0.0 9:1.8502 10:0.0 11:0.0 12:0.0 13:0.0 14:0.75 15:0.75 16:0.3095661700561014 17:0.4888888895511627 18:0.22896242 19:0.535957396 
32768.0 1:0.33333334 2:1.0 3:0.0 4:0.41666666 5:0.6316 6:0.4444 7:0.3529 8:0.25 9:2.6829 10:0.0 11:0.0 12:0.0 13:0.0 14:0.5882352941176471 15:0.588 16:0.5417304845637526 17:0.5600000023841858 18:0.39692982 19:0.582250834 
32768.0 1:0.33333334 2:0.0 3:0.0 4:0.25 5:0.5 6:0.2308 7:0.0833 8:0.0 9:1.5975 10:0.0 11:0.0 12:0.0 13:0.0 14:0.7058823529411765 15:0.706 16:0.2800925669431514 17:0.45185184478759766 18:0.2077381 19:0.434256077 
32768.0 1:0.6 2:0.0 3:0.5 4:0.6333333 5:0.5172 6:0.25 7:0.1111 8:0.0385 9:2.2673 10:0.1132 11:0.0 12:0.0 13:0.0 14:0.6666666666666666 15:0.667 16:0.3775863002660363 17:0.45306122303009033 18:0.27320516 19:0.432700187 
32768.0 1:0.0 2:0.0 3:0.0 4:0.6818182 5:0.8889 6:0.7059 7:0.5625 8:0.5333 9:2.5837 10:0.0373 11:0.0 12:0.0 13:0.0 14:0.5714285714285714 15:0.571 16:0.5422915800567513 17:0.6484848260879517 18:0.40599957 19:0.599967539 
32768.0 1:0.4 2:0.0 3:0.25 4:0.41666666 5:0.619 6:0.45 7:0.2632 8:0.1667 9:2.2905 10:0.15 11:0.0 12:0.0 13:0.0 14:0.5294117647058824 15:0.529 16:0.408194222700378 17:0.5542857050895691 18:0.3544137 19:0.50237608 
32768.0 1:0.25 2:0.0 3:0.0 4:0.5 5:0.65 6:0.4737 7:0.3889 8:0.2941 9:2.7105 10:0.0 11:0.0 12:0.0 13:0.0 14:0.6470588235294118 15:0.647 16:0.6082459614150048 17:0.6057142615318298 18:0.41390693 19:0.54151386 
2446.0881373300817 1:1.0 2:1.0 3:1.0 4:1.0 5:0.7333 6:0.6552 7:0.5714 8:0.4815 9:3.0218 10:0.3969 11:0.0 12:0.0 13:0.0 14:0.38095238095238093 15:0.381 16:0.7300836723417535 17:0.8325581550598145 18:0.50685484 19:0.848665237 
32768.0 1:0.8 2:0.33333334 3:0.33333334 4:0.7037037 5:0.8 6:0.5789 7:0.4444 8:0.2941 9:1.8378 10:0.1053 11:0.0 12:0.0 13:0.0 14:0.5714285714285714 15:0.571 16:0.44081177773656427 17:0.656410276889801 18:0.31453824 19:0.466011405 
32768.0 1:0.33333334 2:0.0 3:0.0 4:0.59090906 5:0.6818 6:0.4286 7:0.35 8:0.3158 9:2.8587 10:0.1429 11:0.0 12:0.0 13:0.0 14:0.6111111111111112 15:0.611 16:0.41089395834611725 17:0.5828571319580078 18:0.38755764 19:0.507402122 
32768.0 1:0.0 2:0.33333334 3:0.0 4:0.4814815 5:0.6207 6:0.4643 7:0.3333 8:0.2308 9:2.7392 10:0.128 11:0.0 12:0.0 13:0.0 14:0.7777777777777778 15:0.778 16:0.4029597219582795 17:0.5589743852615356 18:0.32391738 19:0.444876581 
32768.0 1:0.4 2:1.0 3:0.25 4:0.6363636 5:0.7368 6:0.6111 7:0.5882 8:0.5625 9:2.857 10:0.1015 11:0.0 12:0.0 13:0.0 14:0.5789473684210527 15:0.579 16:0.580322919040881 17:0.7257142663002014 18:0.4354989 19:0.607148111 
32768.0 1:0.33333334 2:0.0 3:0.0 4:0.45 5:0.4706 6:0.3125 7:0.2 8:0.0714 9:1.7329 10:0.0625 11:0.0 12:0.0 13:0.0 14:0.6923076923076923 15:0.692 16:0.4462028447154817 17:0.5481481552124023 18:0.30233058 19:0.487647206 
32768.0 1:1.0 2:1.0 3:0.6666667 4:1.0 5:0.7619 6:0.55 7:0.4737 8:0.3889 9:3.2172 10:0.1571 11:0.0 12:0.0 13:0.0 14:0.65 15:0.65 16:0.5139936536787196 17:0.6146341562271118 18:0.44315927 19:0.620646536 
32768.0 1:0.42857143 2:0.5 3:0.2 4:0.6666667 5:0.6667 6:0.5938 7:0.5161 8:0.4667 9:3.005 10:0.0625 11:0.0 12:0.0 13:0.0 14:0.55 15:0.55 16:0.7168866360191821 17:0.8780487775802612 18:0.48297746 19:0.759596825 
32768.0 1:1.0 2:1.0 3:1.0 4:0.84 5:0.7419 6:0.6333 7:0.5517 8:0.4643 9:3.1648 10:0.3 11:0.0 12:0.0 13:0.0 14:0.47619047619047616 15:0.476 16:0.6708848399735584 17:0.7162790894508362 18:0.49055321 19:0.748461246 
32768.0 1:0.6 2:1.0 3:0.33333334 4:1.0 5:0.6552 6:0.6429 7:0.6296 8:0.6154 9:2.866 10:0.1071 11:0.0 12:0.0 13:0.0 14:0.47619047619047616 15:0.476 16:0.7412195274402593 17:0.8279069662094116 18:0.46469622 19:0.802418709 
32768.0 1:0.33333334 2:0.0 3:0.0 4:0.36363637 5:0.55 6:0.3684 7:0.2222 8:0.1765 9:2.2481 10:0.0 11:0.0 12:0.0 13:0.0 14:0.7142857142857143 15:0.714 16:0.42461238448731325 17:0.5931034684181213 18:0.32609649 19:0.472207695 
32768.0 1:0.5 2:1.0 3:0.33333334 4:0.47368422 5:0.5294 6:0.375 7:0.3333 8:0.2857 9:2.1346 10:0.0 11:0.0 12:0.0 13:0.0 14:0.8461538461538461 15:0.846 16:0.4538959972105762 17:0.585185170173645 18:0.34458556 19:0.425497025 
32768.0 1:0.4 2:0.33333334 3:0.33333334 4:0.5882353 5:0.9 6:0.7368 7:0.5556 8:0.4118 9:2.4541 10:0.5512 11:0.0416 12:0.044 13:0.0 14:0.6 15:0.6 16:0.40874224843218376 17:0.6480000019073486 18:0.44608844 19:0.51152724 
32768.0 1:1.0 2:1.0 3:1.0 4:1.0 5:0.4211 6:0.2778 7:0.2353 8:0.1875 9:1.5789 10:0.1111 11:0.0 12:0.0 13:0.0 14:0.9333333333333333 15:0.933 16:0.16395014049480616 17:0.5096774101257324 18:0.2466792 19:0.371822447 
32768.0 1:0.6666667 2:0.5 3:0.0 4:0.4375 5:0.6154 6:0.4167 7:0.3636 8:0.3 9:2.2061 10:0.0 11:0.0 12:0.0 13:0.0 14:0.5454545454545454 15:0.545 16:0.5372646497594575 17:0.678260862827301 18:0.40705128 19:0.478968769 
32768.0 1:0.8 2:0.6666667 3:0.6666667 4:0.5294118 5:0.75 6:0.6 7:0.5 8:0.4615 9:2.9498 10:0.0 11:0.0 12:0.0 13:0.0 14:0.6 15:0.6 16:0.5097848379031845 17:0.6666666865348816 18:0.40839461 19:0.465759188 
32768.0 1:0.33333334 2:0.0 3:0.0 4:0.4 5:0.7059 6:0.5 7:0.3333 8:0.2143 9:1.6252 10:0.0668 11:0.0 12:0.0 13:0.0 14:0.5714285714285714 15:0.571 16:0.39798491057607843 17:0.5517241358757019 18:0.28945776 19:0.460677773 
32768.0 1:0.42857143 2:1.0 3:0.5 4:1.0 5:0.8077 6:0.68 7:0.6667 8:0.6522 9:3.2898 10:0.161 11:0.0 12:0.0 13:0.0 14:0.35714285714285715 15:0.357 16:0.661755158197639 17:0.7551020383834839 18:0.46220755 19:0.686254203 
32768.0 1:0.0 2:0.0 3:0.0 4:0.45454547 5:0.4762 6:0.25 7:0.0526 8:0.0 9:1.9464 10:0.0 11:0.0 12:0.0 13:0.0 14:0.6875 15:0.688 16:0.36666584050534134 17:0.5090909004211426 18:0.26983083 19:0.368551612 
32768.0 1:1.0 2:0.0 3:0.5 4:0.3181818 5:0.3182 6:0.0952 7:0.05 8:0.0 9:1.2114 10:0.0 11:0.0 12:0.0 13:0.0 14:0.7692307692307693 15:0.769 16:0.29888119357044624 17:0.5111111402511597 18:0.17795972 19:0.33018437 
32768.0 1:0.75 2:0.0 3:0.5 4:0.8333333 5:0.5455 6:0.4286 7:0.35 8:0.2632 9:2.0401 10:0.0952 11:0.0 12:0.0 13:0.0 14:0.6428571428571429 15:0.643 16:0.6000706905936951 17:0.7448275685310364 18:0.39004329 19:0.738888919 
32768.0 1:0.33333334 2:1.0 3:0.0 4:0.8125 5:0.6471 6:0.25 7:0.1333 8:0.0714 9:2.344 10:0.0559 11:0.0 12:0.0 13:0.0 14:0.75 15:0.75 16:0.3138370913740007 17:0.4962962865829468 18:0.22249053 19:0.381890565 
32768.0 1:0.33333334 2:0.0 3:0.0 4:0.75 5:0.6 6:0.2857 7:0.1538 8:0.0833 9:2.2272 10:0.0702 11:0.0 12:0.0 13:0.0 14:0.6666666666666666 15:0.667 16:0.3290227570856459 17:0.5555555820465088 18:0.28854167 19:0.404608935 
6187.3865771129595 1:0.0 2:0.0 3:0.0 4:0.77272725 5:0.6957 6:0.3182 7:0.1905 8:0.1 9:2.8774 10:0.163 11:0.0 12:0.0 13:0.0 14:0.6842105263157895 15:0.684 16:0.34125553476550596 17:0.4205128252506256 18:0.32809783 19:0.425968409 
32768.0 1:0.0 2:0.0 3:0.0 4:0.2962963 5:0.4762 6:0.15 7:0.0 8:0.0 9:1.9857 10:0.0 11:0.0 12:0.0 13:0.0 14:0.875 15:0.875 16:0.2398047796209236 17:0.46060606837272644 18:0.21106249 19:0.350808978 
32768.0 1:0.33333334 2:0.33333334 3:0.33333334 4:0.55172414 5:0.5556 6:0.3846 7:0.24 8:0.125 9:2.4775 10:0.0 11:0.0 12:0.0 13:0.0 14:0.631578947368421 15:0.632 16:0.5859595837967637 17:0.6487804651260376 18:0.3185094 19:0.730568349 
32768.0 1:0.33333334 2:0.0 3:0.0 4:0.45714286 5:0.4688 6:0.1935 7:0.1333 8:0.069 9:2.1664 10:0.0323 11:0.0 12:0.0 13:0.0 14:0.9130434782608695 15:0.913 16:0.28666990881836496 17:0.40425533056259155 18:0.1905746 19:0.352245301 
32768.0 1:0.5 2:1.0 3:0.25 4:0.88235295 5:0.6957 6:0.5909 7:0.5714 8:0.55 9:2.6695 10:0.1364 11:0.0 12:0.0 13:0.0 14:0.5384615384615384 15:0.538 16:0.7633465768943914 17:0.8444444537162781 18:0.47755435 19:0.833562136 
32768.0 1:1.0 2:0.0 3:1.0 4:0.5 5:0.6875 6:0.4667 7:0.3571 8:0.3077 9:2.5861 10:0.1258 11:0.0 12:0.0 13:0.0 14:0.7142857142857143 15:0.714 16:0.4170708488178625 17:0.6000000238418579 18:0.37338936 19:0.401066303 
32768.0 1:0.0 2:1.0 3:0.0 4:0.4375 5:0.5556 6:0.3529 7:0.1875 8:0.0667 9:2.1705 10:0.0 11:0.0 12:0.0 13:0.0 14:0.7272727272727273 15:0.727 16:0.38869988881906725 17:0.4959999918937683 18:0.24540441 19:0.530791998 
32768.0 1:0.75 2:0.5 3:0.5 4:1.0 5:1.0 6:0.875 7:0.7391 8:0.6364 9:4.0103 10:0.0686 11:0.0 12:0.0 13:0.0 14:0.17857142857142858 15:0.179 16:0.8083069229497983 17:0.8530611991882324 18:0.54094406 19:0.728133202 
32768.0 1:0.0 2:0.0 3:0.0 4:0.33333334 5:0.5185 6:0.2692 7:0.12 8:0.0417 9:2.0319 10:0.0 11:0.0 12:0.0 13:0.0 14:0.7307692307692307 15:0.731 16:0.29815970130874275 17:0.5094339847564697 18:0.20895463 19:0.458255023 
32768.0 1:0.0 2:1.0 3:0.0 4:0.47058824 5:0.6 6:0.2143 7:0.0769 8:0.0 9:2.0138 10:0.0 11:0.0 12:0.0 13:0.0 14:0.7857142857142857 15:0.786 16:0.1927133230377546 17:0.3391304314136505 18:0.29905186 19:0.215789929 
32768.0 1:0.5 2:1.0 3:0.0 4:0.5862069 5:0.8095 6:0.4 7:0.3158 8:0.2222 9:1.8932 10:0.0 11:0.0 12:0.0 13:0.0 14:0.5185185185185185 15:0.519 16:0.4521536005296494 17:0.5794872045516968 18:0.30934343 19:0.478102684 
32768.0 1:0.5 2:0.75 3:0.4 4:1.0 5:0.7692 6:0.68 7:0.625 8:0.6087 9:3.1366 10:0.2166 11:0.0 12:0.0 13:0.0 14:0.41379310344827586 15:0.414 16:0.5955945748051147 17:0.800000011920929 18:0.43222222 19:0.635643482 
32768.0 1:0.33333334 2:0.0 3:0.0 4:1.0 5:0.5862 6:0.3571 7:0.1852 8:0.0769 9:2.2514 10:0.2488 11:0.0 12:0.0 13:0.0 14:0.7368421052631579 15:0.737 16:0.4317537157412511 17:0.5951219797134399 18:0.31787083 19:0.575324953 
32768.0 1:0.6666667 2:0.75 3:0.75 4:1.0 5:0.9 6:0.7368 7:0.7222 8:0.7059 9:3.2244 10:0.2633 11:0.0 12:0.0 13:0.0 14:0.3333333333333333 15:0.333 16:0.6950895988678243 17:0.9629629850387573 18:0.47229251 19:0.686682999 
32768.0 1:0.16666667 2:0.0 3:0.0 4:0.44444445 5:0.6957 6:0.4091 7:0.2857 8:0.2 9:3.0691 10:0.0 11:0.0 12:0.0 13:0.0 14:0.6363636363636364 15:0.636 16:0.38835479963748776 17:0.5314285755157471 18:0.29697386 19:0.398997456 
32768.0 1:0.16666667 2:0.0 3:0.0 4:0.45454547 5:0.5714 6:0.4 7:0.2632 8:0.1667 9:2.2325 10:0.0 11:0.0 12:0.0 13:0.0 14:0.6923076923076923 15:0.692 16:0.5891479469175378 17:0.6518518328666687 18:0.34914361 19:0.491698354 
32768.0 1:0.75 2:0.2 3:0.2 4:0.42857143 5:0.7143 6:0.4615 7:0.4167 8:0.3636 9:2.2822 10:0.0 11:0.0 12:0.0 13:0.0 14:0.5882352941176471 15:0.588 16:0.42328889126482794 17:0.6666666865348816 18:0.34238095 19:0.522479713 
32768.0 1:0.4 2:0.33333334 3:0.0 4:1.0 5:0.6 6:0.4483 7:0.3571 8:0.2593 9:2.4115 10:0.2186 11:0.0 12:0.0 13:0.0 14:0.75 15:0.75 16:0.546826224005642 17:0.6097561120986938 18:0.37721774 19:0.6442433 
32768.0 1:0.16666667 2:0.0 3:0.0 4:0.9583333 5:0.9583 6:0.7826 7:0.6818 8:0.6667 9:3.1695 10:0.1713 11:0.0 12:0.0 13:0.0 14:0.37037037037037035 15:0.37 16:0.607646767673402 17:0.8325581550598145 18:0.45426754 19:0.61992234 
32768.0 1:0.5 2:0.5 3:0.5 4:0.73913044 5:0.9545 6:0.8571 7:0.85 8:0.8421 9:3.1581 10:0.1439 11:0.0 12:0.0 13:0.0 14:0.34782608695652173 15:0.348 16:0.684027315808565 17:0.8799999952316284 18:0.51214459 19:0.672571957 
32768.0 1:0.33333334 2:0.0 3:0.0 4:1.0 5:0.7 6:0.3158 7:0.1667 8:0.0588 9:2.7274 10:0.1606 11:0.0 12:0.0 13:0.0 14:0.631578947368421 15:0.632 16:0.4301770542495895 17:0.37714284658432007 18:0.26772661 19:0.47907725 
32768.0 1:0.5 2:0.4 3:0.16666667 4:0.52380955 5:0.5 6:0.3333 7:0.2 8:0.1579 9:1.9545 10:0.0476 11:0.0 12:0.0 13:0.0 14:1.1538461538461537 15:1.154 16:0.3792256004442221 17:0.5407407283782959 18:0.29410173 19:0.443155318 
32768.0 1:0.5 2:0.5 3:0.5 4:1.0 5:0.8235 6:0.625 7:0.4667 8:0.4286 9:2.0672 10:0.1736 11:0.0 12:0.0 13:0.0 14:0.4782608695652174 15:0.478 16:0.5250117802255709 17:0.739393949508667 18:0.36161388 19:0.523217618 
32768.0 1:0.0 2:0.0 3:0.0 4:1.0 5:0.6667 6:0.5217 7:0.4545 8:0.4286 9:2.8775 10:0.2053 11:0.0 12:0.0 13:0.0 14:0.7142857142857143 15:0.714 16:0.5317695254769917 17:0.5813953280448914 18:0.40804487 19:0.61946702 
32768.0 1:0.33333334 2:1.0 3:0.0 4:1.0 5:0.625 6:0.4516 7:0.3667 8:0.3103 9:2.5107 10:0.2958 11:0.0 12:0.0 13:0.0 14:0.42857142857142855 15:0.429 16:0.5664275976702049 17:0.6901960968971252 18:0.3722284 19:0.630636513 
32768.0 1:0.375 2:0.0 3:0.0 4:0.7 5:0.5588 6:0.303 7:0.2187 8:0.129 9:2.4807 10:0.0909 11:0.0 12:0.0 13:0.0 14:0.782608695652174 15:0.783 16:0.3906646894844629 17:0.47659575939178467 18:0.30782086 19:0.601092458 
32768.0 1:0.6 2:0.25 3:0.0 4:0.56 5:0.5517 6:0.4286 7:0.3704 8:0.3077 9:2.2854 10:0.0714 11:0.0 12:0.0 13:0.0 14:0.75 15:0.75 16:0.48702896945183133 17:0.6864864826202393 18:0.37309569 19:0.57177186 
32768.0 1:0.6 2:0.6666667 3:0.6666667 4:1.0 5:0.9474 6:0.8889 7:0.8824 8:0.875 9:3.3254 10:0.1324 11:0.0 12:0.0 13:0.0 14:0.2727272727272727 15:0.273 16:0.7542627297839198 17:0.9714285731315613 18:0.52335526 19:0.784638703 
32768.0 1:0.0 2:0.0 3:0.0 4:0.4117647 5:0.625 6:0.3043 7:0.1818 8:0.0952 9:2.2991 10:0.0 11:0.0 12:0.0 13:0.0 14:0.6538461538461539 15:0.654 16:0.35287563305775327 17:0.4355555474758148 18:0.24073232 19:0.354195029 
32768.0 1:0.8333333 2:0.6 3:0.33333334 4:1.0 5:0.9615 6:0.8 7:0.7083 8:0.6522 9:1.9557 10:0.1334 11:0.0 12:0.0 13:0.0 14:0.36 15:0.36 16:0.6380291060570722 17:0.9767441749572754 18:0.38493243 19:0.667691529 
32768.0 1:0.4 2:0.5 3:0.5 4:0.32 5:0.55 6:0.4211 7:0.3889 8:0.3529 9:2.3364 10:0.0 11:0.0 12:0.0 13:0.0 14:0.6875 15:0.688 16:0.381535765771209 17:0.5485714077949524 18:0.32609649 19:0.511201084 
32768.0 1:0.4 2:0.25 3:0.25 4:0.5555556 5:0.6316 6:0.3889 7:0.2353 8:0.1875 9:2.3834 10:0.1761 11:0.0 12:0.0 13:0.0 14:0.7142857142857143 15:0.714 16:0.3399901823218341 17:0.4689655303955078 18:0.29923461 19:0.519586861 
32768.0 1:1.0 2:1.0 3:1.0 4:0.65384614 5:0.64 6:0.4167 7:0.2609 8:0.2273 9:2.7744 10:0.1667 11:0.0 12:0.0 13:0.0 14:0.5238095238095238 15:0.524 16:0.4769328515046933 17:0.5534883737564087 18:0.32938406 19:0.602972388 
32768.0 1:0.16666667 2:1.0 3:0.0 4:0.3478261 5:0.35 6:0.1579 7:0.1111 8:0.0588 9:1.2826 10:0.0526 11:0.0 12:0.0 13:0.0 14:0.8571428571428571 15:0.857 16:0.3023221357481634 17:0.46206897497177124 18:0.23338745 19:0.468894958 
32768.0 1:0.25 2:0.0 3:0.0 4:0.4117647 5:0.5385 6:0.3333 7:0.2727 8:0.2 9:1.928 10:0.0814 11:0.0 12:0.0 13:0.0 14:0.6153846153846154 15:0.615 16:0.40767895366248375 17:0.5565217137336731 18:0.33121566 19:0.478055805 
32768.0 1:0.0 2:0.0 3:0.0 4:0.35 5:0.5 6:0.3333 7:0.2857 8:0.2308 9:1.8502 10:0.0 11:0.0 12:0.0 13:0.0 14:0.8333333333333334 15:0.833 16:0.4002666090504386 17:0.6480000019073486 18:0.31995507 19:0.607512534 
32768.0 1:0.2 2:0.0 3:0.0 4:0.4117647 5:0.6154 6:0.25 7:0.0909 8:0.0 9:1.7671 10:0.0 11:0.0 12:0.0 13:0.0 14:0.7142857142857143 15:0.714 16:0.17422083637192662 17:0.4434782564640045 18:0.18282086 19:0.272329569 
32768.0 1:0.16666667 2:0.33333334 3:0.0 4:0.375 5:0.6667 6:0.5769 7:0.52 8:0.5 9:3.0966 10:0.0 11:0.0 12:0.0 13:0.0 14:0.6842105263157895 15:0.684 16:0.5738530409257618 17:0.8512820601463318 18:0.33766648 19:0.642109394 
30104.539023674355 1:1.0 2:1.0 3:1.0 4:0.7894737 5:0.95 6:0.7895 7:0.7222 8:0.6471 9:3.1535 10:0.1181 11:0.0 12:0.0 13:0.0 14:0.3333333333333333 15:0.333 16:0.6573262189923926 17:0.8689655065536499 18:0.44191408 19:0.771022558 
32768.0 1:0.375 2:0.6666667 3:0.0 4:0.6 5:0.7037 6:0.5385 7:0.48 8:0.4167 9:3.2349 10:0.0769 11:0.0 12:0.0 13:0.0 14:0.56 15:0.56 16:0.49978905676782776 17:0.640816330909729 18:0.34912088 19:0.526597917 
32768.0 1:0.0 2:0.0 3:0.0 4:0.3809524 5:0.4783 6:0.3182 7:0.2857 8:0.25 9:1.9508 10:0.0455 11:0.0 12:0.0 13:0.0 14:0.7142857142857143 15:0.714 16:0.3608961229143299 17:0.5419355034828186 18:0.25863448 19:0.479420453 
32768.0 1:0.0 2:0.0 3:0.0 4:0.31428573 5:0.6087 6:0.3182 7:0.1905 8:0.15 9:2.2179 10:0.0 11:0.0 12:0.0 13:0.0 14:0.7037037037037037 15:0.704 16:0.26578556073082676 17:0.5219511985778809 18:0.22531115 19:0.294053435 
32768.0 1:0.2857143 2:0.6666667 3:0.25 4:0.84 5:0.8462 6:0.6 7:0.5 8:0.4348 9:3.0812 10:0.2572 11:0.0 12:0.0 13:0.0 14:0.5769230769230769 15:0.577 16:0.5235202362551901 17:0.7219512462615967 18:0.38225478 19:0.580825627 
32768.0 1:0.0 2:0.0 3:0.0 4:0.375 5:0.5625 6:0.2 7:0.0714 8:0.0 9:2.0726 10:0.0 11:0.0 12:0.0 13:0.0 14:0.9 15:0.9 16:0.23879694376417418 17:0.41904762387275696 18:0.25755719 19:0.383105367 
32768.0 1:1.0 2:0.25 3:0.6666667 4:0.47058824 5:0.5333 6:0.3571 7:0.3077 8:0.25 9:1.912 10:0.0 11:0.0 12:0.0 13:0.0 14:0.7272727272727273 15:0.727 16:0.5161954478081063 17:0.678260862827301 18:0.35643382 19:0.62713486 
32768.0 1:0.25 2:0.0 3:0.0 4:0.75 5:0.6429 6:0.3704 7:0.2308 8:0.12 9:2.6937 10:0.1852 11:0.0 12:0.0 13:0.0 14:0.7368421052631579 15:0.737 16:0.4348472941534208 17:0.5641025900840759 18:0.33261494 19:0.573564768 
32768.0 1:1.0 2:1.0 3:1.0 4:0.64285713 5:0.65 6:0.5128 7:0.3947 8:0.2703 9:2.991 10:0.2095 11:0.0 12:0.0 13:0.0 14:0.5789473684210527 15:0.579 16:0.6468615305002192 17:0.6844444274902344 18:0.36891433 19:0.579450905 
32768.0 1:1.0 2:1.0 3:1.0 4:0.47826087 5:0.6316 6:0.4444 7:0.3529 8:0.25 9:2.4482 10:0.0507 11:0.0 12:0.0 13:0.0 14:0.47058823529411764 15:0.471 16:0.507321843178991 17:0.6228571534156799 18:0.33580044 19:0.650816977 
32768.0 1:0.33333334 2:1.0 3:0.0 4:1.0 5:0.8421 6:0.3889 7:0.2353 8:0.125 9:3.4719 10:0.0556 11:0.0 12:0.0 13:0.0 14:0.4117647058823529 15:0.412 16:0.4844765818186506 17:0.645714282989502 18:0.39257519 19:0.760239661 
32768.0 1:0.0 2:0.0 3:0.0 4:0.5263158 5:0.5909 6:0.4286 7:0.4 8:0.3684 9:2.279 10:0.0476 11:0.0 12:0.0 13:0.0 14:1.0 15:1.0 16:0.5049762211580403 17:0.7599999904632568 18:0.35585474 19:0.662393153 
32768.0 1:0.6666667 2:0.0 3:0.0 4:0.33333334 5:0.5882 6:0.375 7:0.2 8:0.0 9:2.1404 10:0.0 11:0.0 12:0.0 13:0.0 14:0.5789473684210527 15:0.579 16:0.37706230777104305 17:0.5935483574867249 18:0.26076389 19:0.339144349 
32768.0 1:0.0 2:1.0 3:0.0 4:0.47826087 5:0.7143 6:0.4615 7:0.25 8:0.1818 9:1.7638 10:0.045 11:0.0 12:0.0 13:0.0 14:0.5 15:0.5 16:0.4462881135286377 17:0.7448275685310364 18:0.31915761 19:0.42945227 
32768.0 1:0.0 2:1.0 3:0.0 4:1.0 5:0.7895 6:0.6111 7:0.5294 8:0.5 9:3.0634 10:0.2753 11:0.0 12:0.0 13:0.0 14:0.5 15:0.5 16:0.5489048920086629 17:0.6864864826202393 18:0.45328947 19:0.649213493 
32768.0 1:0.25 2:0.0 3:0.0 4:0.33333334 5:0.4667 6:0.1429 7:0.0 8:0.0 9:1.7768 10:0.0 11:0.0 12:0.0 13:0.0 14:0.9090909090909091 15:0.909 16:0.1951273367365578 17:0.4434782564640045 18:0.17922794 19:0.247553989 
32768.0 1:0.2 2:0.5 3:0.0 4:0.26086956 5:0.5625 6:0.4 7:0.3571 8:0.3077 9:1.595 10:0.0 11:0.0 12:0.0 13:0.0 14:0.75 15:0.75 16:0.27129216031778963 17:0.5111111402511597 18:0.29796123 19:0.368537426 
32768.0 1:0.25 2:0.0 3:0.0 4:0.39130434 5:0.4737 6:0.2222 7:0.0588 8:0.0 9:1.9069 10:0.0556 11:0.0 12:0.0 13:0.0 14:0.7647058823529411 15:0.765 16:0.22518496503650587 17:0.4848484992980957 18:0.2337344 19:0.322289318 
32768.0 1:0.2 2:0.5 3:0.0 4:0.2631579 5:0.55 6:0.2632 7:0.2222 8:0.1765 9:2.0 10:0.2105 11:0.0 12:0.0 13:0.0 14:1.1 15:1.1 16:0.20325764243391437 17:0.4962962865829468 18:0.18474265 19:0.430667251 
32768.0 1:0.0 2:0.0 3:0.0 4:0.3181818 5:0.45 6:0.2632 7:0.2222 8:0.1765 9:1.6081 10:0.0526 11:0.0 12:0.0 13:0.0 14:1.0 15:1.0 16:0.3970630498700764 17:0.5759999752044678 18:0.28333333 19:0.487325191 
30116.717318880394 1:0.75 2:1.0 3:0.33333334 4:1.0 5:0.7778 6:0.5714 7:0.4118 8:0.3333 9:3.5691 10:0.1881 11:0.0 12:0.0 13:0.0 14:0.5416666666666666 15:0.542 16:0.664564019983889 17:0.43673470616340637 18:0.41620239 19:0.812963963 
32768.0 1:0.25 2:0.0 3:1.0 4:0.29166666 5:0.4211 6:0.1667 7:0.0588 8:0.0 9:1.645 10:0.0 11:0.0 12:0.0 13:0.0 14:0.7857142857142857 15:0.786 16:0.3023221357481634 17:0.45517241954803467 18:0.20786341 19:0.446063966 
32768.0 1:0.5 2:0.0 3:0.0 4:0.5 5:0.5588 6:0.3333 7:0.1563 8:0.0645 9:2.5434 10:0.0783 11:0.0 12:0.0 13:0.0 14:0.8571428571428571 15:0.857 16:0.4241853365793618 17:0.5106382966041565 18:0.28321662 19:0.548393965 
32768.0 1:1.0 2:0.0 3:1.0 4:0.4347826 5:0.6875 6:0.4 7:0.2857 8:0.1538 9:2.1651 10:0.0488 11:0.0 12:0.0 13:0.0 14:0.5789473684210527 15:0.579 16:0.37203481033409586 17:0.6551724076271057 18:0.29451726 19:0.544798434 
32768.0 1:0.0 2:0.0 3:0.0 4:0.6666667 5:0.5833 6:0.2609 7:0.1364 8:0.0952 9:2.3949 10:0.1341 11:0.0 12:0.0 13:0.0 14:0.7222222222222222 15:0.722 16:0.22701519137447435 17:0.4228571355342865 18:0.25583333 19:0.33011052 
16086.53202385022 1:0.0 2:0.0 3:0.0 4:1.0 5:0.7576 6:0.5938 7:0.5161 8:0.4333 9:3.303 10:0.3125 11:0.0 12:0.0 13:0.0 14:0.5384615384615384 15:0.538 16:0.616294817899744 17:0.6254545450210571 18:0.47605679 19:0.704251051 
32768.0 1:0.4 2:0.33333334 3:0.33333334 4:0.61904764 5:0.7619 6:0.65 7:0.5263 8:0.4444 9:3.1444 10:0.1449 11:0.0 12:0.0 13:0.0 14:0.3888888888888889 15:0.389 16:0.5834522555271954 17:0.739393949508667 18:0.44241991 19:0.53118068 
9690.381609216607 1:1.0 2:0.33333334 3:1.0 4:1.0 5:0.9643 6:0.8148 7:0.7692 8:0.72 9:3.3773 10:0.2318 11:0.1179 12:0.0306 13:0.0319 14:0.36 15:0.36 16:0.6789778152778306 17:0.7906976938247681 18:0.49384113 19:0.665830195 
32768.0 1:0.4 2:0.0 3:0.33333334 4:1.0 5:0.6 6:0.4483 7:0.3571 8:0.2963 9:2.5556 10:0.1093 11:0.0 12:0.0 13:0.0 14:0.6666666666666666 15:0.667 16:0.6190031098066302 17:0.6604651212692261 18:0.37721774 19:0.637806654 
32768.0 1:0.5 2:0.5 3:0.0 4:0.5 5:0.7692 6:0.5 7:0.3636 8:0.3 9:2.3213 10:0.0 11:0.0 12:0.0 13:0.0 14:0.5625 15:0.563 16:0.45688324771441746 17:0.6608695387840271 18:0.36176981 19:0.373748451 
32768.0 1:0.25 2:0.0 3:0.0 4:0.3529412 5:0.5385 6:0.3333 7:0.1818 8:0.1 9:1.9304 10:0.0 11:0.0 12:0.0 13:0.0 14:0.7272727272727273 15:0.727 16:0.35987735552359856 17:0.539130449295044 18:0.31483516 19:0.466219097 
32768.0 1:0.5 2:0.0 3:0.5 4:0.35 5:0.5 6:0.2857 7:0.1 8:0.0526 9:1.9091 10:0.0952 11:0.0 12:0.0 13:0.0 14:1.0 15:1.0 16:0.3593640481534773 17:0.644444465637207 18:0.24569452 19:0.320707083 
32768.0 1:0.2 2:0.0 3:0.0 4:0.5 5:0.4839 6:0.3 7:0.2069 8:0.1786 9:1.9264 10:0.1 11:0.0 12:0.0 13:0.0 14:0.8666666666666667 15:0.867 16:0.37578222512315 17:0.6193548440933228 18:0.29203156 19:0.538829863 
32768.0 1:0.6666667 2:0.5 3:0.5 4:0.90909094 5:0.6667 6:0.5385 7:0.48 8:0.4167 9:2.8304 10:0.1379 11:0.0 12:0.0 13:0.0 14:0.5238095238095238 15:0.524 16:0.4634407617301676 17:0.6651162505149841 18:0.44490057 19:0.63397032 
7161.60161977554 1:1.0 2:0.33333334 3:1.0 4:0.44444445 5:0.5862 6:0.25 7:0.1111 8:0.0385 9:2.6087 10:0.0333 11:0.0 12:0.0 13:0.0 14:0.7777777777777778 15:0.778 16:0.22071900497340505 17:0.4470588266849518 18:0.2081229 19:0.369674832 
32768.0 1:0.25 2:0.0 3:0.0 4:0.8125 5:0.5 6:0.2353 7:0.0625 8:0.0 9:1.737 10:0.1765 11:0.0 12:0.0 13:0.0 14:0.8461538461538461 15:0.846 16:0.345752727784916 17:0.5555555820465088 18:0.24422515 19:0.490444273 
32768.0 1:0.5 2:0.0 3:0.5 4:0.41935483 5:0.5556 6:0.2692 7:0.08 8:0.0 9:2.6114 10:0.0 11:0.0 12:0.0 13:0.0 14:0.7272727272727273 15:0.727 16:0.2710138821126436 17:0.47111111879348755 18:0.24655271 19:0.392568499 
32768.0 1:0.2 2:0.33333334 3:0.0 4:0.4074074 5:0.5455 6:0.2857 7:0.1 8:0.0526 9:2.3574 10:0.0 11:0.0 12:0.0 13:0.0 14:0.6666666666666666 15:0.667 16:0.3950903445635743 17:0.4810810685157776 18:0.26688076 19:0.45967868 
32768.0 1:0.33333334 2:0.0 3:0.0 4:0.31578946 5:0.5 6:0.2 7:0.0714 8:0.0 9:1.9037 10:0.0 11:0.0 12:0.0 13:0.0 14:0.9166666666666666 15:0.917 16:0.24815807319453306 17:0.47999998927116394 18:0.2436683 19:0.462660044 
32768.0 1:0.33333334 2:0.0 3:0.0 4:0.29411766 5:0.4286 6:0.1538 7:0.0 8:0.0 9:1.5364 10:0.0 11:0.0 12:0.0 13:0.0 14:0.7272727272727273 15:0.727 16:0.27400787248563024 17:0.426086962223053 18:0.20952381 19:0.324382693 
31822.061731663372 1:0.2857143 2:0.2 3:0.2 4:0.44827586 5:0.7083 6:0.5217 7:0.3636 8:0.2857 9:3.2407 10:0.0 11:0.0 12:0.0 13:0.0 14:0.5 15:0.5 16:0.5191783160008424 17:0.5853658318519592 18:0.35728945 19:0.497745603 
32768.0 1:0.0 2:0.0 3:0.0 4:0.57894737 5:0.5625 6:0.3333 7:0.2143 8:0.0769 9:1.889 10:0.1177 11:0.1261 12:0.0 13:0.0 14:0.7647058823529411 15:0.765 16:0.32374505143785476 17:0.3777777850627899 18:0.2727591 19:0.408197522 
32768.0 1:0.25 2:0.6666667 3:0.25 4:0.90909094 5:0.5517 6:0.3571 7:0.1852 8:0.0769 9:2.2752 10:0.1132 11:0.0 12:0.0 13:0.0 14:0.8421052631578947 15:0.842 16:0.40222461391025516 17:0.5641025900840759 18:0.29688543 19:0.584157586 
32768.0 1:0.3 2:0.0 3:0.0 4:0.5 5:0.6571 6:0.4412 7:0.3939 8:0.3437 9:3.3146 10:0.0294 11:0.0 12:0.0 13:0.0 14:0.6785714285714286 15:0.679 16:0.39936793538526333 17:0.5152542591094971 18:0.34129857 19:0.480238765 
32768.0 1:0.0 2:1.0 3:0.0 4:0.375 5:0.5333 6:0.2857 7:0.2308 8:0.1667 9:1.845 10:0.0 11:0.0 12:0.0 13:0.0 14:0.8888888888888888 15:0.889 16:0.4328703307303249 17:0.5473684072494507 18:0.32414216 19:0.392534047 
32768.0 1:0.25 2:0.5 3:0.0 4:0.25 5:0.3889 6:0.2353 7:0.125 8:0.0 9:1.5556 10:0.0 11:0.0 12:0.0 13:0.0 14:0.7857142857142857 15:0.786 16:0.2844192003331666 17:0.5379310250282288 18:0.23311404 19:0.352008969 
32768.0 1:0.5 2:0.5 3:0.5 4:0.5217391 5:0.7391 6:0.5909 7:0.4762 8:0.4 9:2.9636 10:0.2282 11:0.0 12:0.0 13:0.0 14:0.3888888888888889 15:0.389 16:0.5437704937633967 17:0.691428542137146 18:0.43131039 19:0.598383188 
32768.0 1:1.0 2:1.0 3:1.0 4:1.0 5:0.6818 6:0.5714 7:0.45 8:0.3684 9:2.6757 10:0.1845 11:0.0 12:0.0 13:0.0 14:0.6470588235294118 15:0.647 16:0.44981015109104505 17:0.5548387169837952 18:0.39199561 19:0.386509806 
32768.0 1:1.0 2:1.0 3:1.0 4:0.7037037 5:0.85 6:0.6842 7:0.5556 8:0.4118 9:2.4422 10:0.098 11:0.0 12:0.0 13:0.0 14:0.48148148148148145 15:0.481 16:0.473215001543344 17:0.800000011920929 18:0.39011905 19:0.53191334 
32768.0 1:0.5 2:0.5 3:0.5 4:0.5833333 5:0.6667 6:0.5862 7:0.5714 8:0.5556 9:2.703 10:0.1984 11:0.0 12:0.0 13:0.0 14:0.6666666666666666 15:0.667 16:0.7420656016698219 17:0.8645161390304565 18:0.46676747 19:0.768595934 
32768.0 1:0.5714286 2:0.2 3:0.5 4:0.6666667 5:0.5909 6:0.4286 7:0.3 8:0.1579 9:2.4192 10:0.0476 11:0.0 12:0.0 13:0.0 14:0.7333333333333333 15:0.733 16:0.46719967763278786 17:0.6363636255264282 18:0.33407444 19:0.619741976 
32768.0 1:0.2 2:0.33333334 3:0.0 4:0.5 5:0.6923 6:0.52 7:0.375 8:0.2609 9:3.0421 10:0.1792 11:0.0 12:0.0 13:0.0 14:0.6190476190476191 15:0.619 16:0.37925620890191014 17:0.5384615659713745 18:0.33764062 19:0.416782051 
8864.587830316215 1:0.42857143 2:0.25 3:0.25 4:1.0 5:0.7419 6:0.6667 7:0.6207 8:0.5714 9:3.2332 10:0.2918 11:0.0 12:0.0 13:0.0 14:0.42105263157894735 15:0.421 16:0.7506224777142025 17:0.892307698726654 18:0.49870226 19:0.823781669 
32768.0 1:0.8 2:1.0 3:0.6666667 4:0.6666667 5:0.7097 6:0.6333 7:0.5517 8:0.4643 9:3.2713 10:0.0667 11:0.0 12:0.0 13:0.0 14:0.4444444444444444 15:0.444 16:0.6948429161075209 17:0.8615384697914124 18:0.45382914 19:0.764671504 
32768.0 1:0.5 2:0.25 3:0.25 4:0.4074074 5:0.56 6:0.375 7:0.3478 8:0.3182 9:2.4076 10:0.0833 11:0.0 12:0.0 13:0.0 14:0.631578947368421 15:0.632 16:0.4029597219582795 17:0.5076923370361328 18:0.3484706 19:0.542282999 
32768.0 1:1.0 2:1.0 3:1.0 4:1.0 5:0.5789 6:0.3889 7:0.3529 8:0.3125 9:1.8805 10:0.0404 11:0.0 12:0.0 13:0.0 14:0.7272727272727273 15:0.727 16:0.4247345663824111 17:0.5657142996788025 18:0.28077342 19:0.496186972 
20802.306994440496 1:0.6666667 2:1.0 3:0.5 4:0.65 5:0.6818 6:0.4286 7:0.15 8:0.0 9:2.5402 10:0.2857 11:0.0 12:0.0 13:0.0 14:0.8125 15:0.813 16:0.4006043234203767 17:0.4000000059604645 18:0.33806159 19:0.587469339 
32768.0 1:0.6 2:0.6666667 3:0.6666667 4:0.72 5:0.8947 6:0.6667 7:0.6471 8:0.625 9:1.7562 10:0.0231 11:0.0 12:0.0 13:0.0 14:0.5 15:0.5 16:0.5576605807042068 17:0.7885714173316956 18:0.39135965 19:0.554022312 
32768.0 1:0.16666667 2:0.33333334 3:0.0 4:0.95238096 5:0.5556 6:0.5385 7:0.52 8:0.5 9:2.2488 10:0.1154 11:0.0 12:0.0 13:0.0 14:0.6470588235294118 15:0.647 16:0.6965274472765396 17:0.8342857360839844 18:0.42829776 19:0.755625725 
32768.0 1:1.0 2:1.0 3:1.0 4:0.33333334 5:0.4444 6:0.125 7:0.0 8:0.0 9:1.3333 10:0.0 11:0.0 12:0.0 13:0.0 14:0.625 15:0.625 16:0.27101018991188586 17:0.4941176474094391 18:0.26186869 19:0.409060866 
32768.0 1:0.6666667 2:0.6666667 3:0.6666667 4:0.95652175 5:0.7188 6:0.6129 7:0.6 8:0.5862 9:3.1361 10:0.199 11:0.0 12:0.0 13:0.0 14:0.6 15:0.6 16:0.7373130055191127 17:0.8292682766914368 18:0.49135194 19:0.808845043 
21345.387576225734 1:0.33333334 2:1.0 3:0.0 4:0.0 5:0.8621 6:0.75 7:0.6667 8:0.5769 9:3.4264 10:0.6059 11:0.0363 12:0.0 13:0.0 14:0.23333333333333334 15:0.233 16:0.7481849204163422 17:0.8690909147262573 18:0.53846221 19:0.747972012 
32768.0 1:0.25 2:0.0 3:0.0 4:0.33333334 5:0.625 6:0.2667 7:0.1429 8:0.0769 9:2.3923 10:0.0656 11:0.0 12:0.0 13:0.0 14:0.75 15:0.75 16:0.19130131052603708 17:0.5714285969734192 18:0.21053686 19:0.213077411 
6359.798584537798 1:0.75 2:1.0 3:1.0 4:0.85714287 5:0.9583 6:0.7826 7:0.7273 8:0.7143 9:3.3623 10:0.2172 11:0.0 12:0.0 13:0.0 14:0.4090909090909091 15:0.409 16:0.6389360148115135 17:0.8054053783416748 18:0.45921717 19:0.607268155 
32768.0 1:0.33333334 2:1.0 3:0.0 4:0.3478261 5:0.5294 6:0.25 7:0.0667 8:0.0 9:2.164 10:0.0 11:0.0 12:0.0 13:0.0 14:0.7333333333333333 15:0.733 16:0.3138370913740007 17:0.47741934657096863 18:0.25748194 19:0.469570965 
32768.0 1:0.33333334 2:0.0 3:0.0 4:0.6666667 5:0.5833 6:0.3636 7:0.3 8:0.2222 9:1.7711 10:0.0909 11:0.0 12:0.0 13:0.0 14:0.5555555555555556 15:0.556 16:0.5241586547089077 17:0.6315789222717285 18:0.35943223 19:0.631646156 
32768.0 1:1.0 2:0.0 3:0.33333334 4:0.32142857 5:0.5652 6:0.3636 7:0.2381 8:0.15 9:2.2716 10:0.0816 11:0.0 12:0.0 13:0.0 14:0.7 15:0.7 16:0.36283930906700257 17:0.4424242377281189 18:0.23889192 19:0.380206227 
16272.446141483262 1:1.0 2:1.0 3:0.75 4:0.9166667 5:0.6857 6:0.5882 7:0.5758 8:0.5625 9:3.0297 10:0.0882 11:0.0 12:0.0 13:0.0 14:0.5555555555555556 15:0.556 16:0.7812006844190599 17:0.8864864706993103 18:0.48322947 19:0.823541462 
32768.0 1:0.6 2:1.0 3:0.33333334 4:0.79310346 5:0.6857 6:0.6471 7:0.6061 8:0.5625 9:3.1536 10:0.1471 11:0.0 12:0.0 13:0.0 14:0.4583333333333333 15:0.458 16:0.7088883275313773 17:0.886274516582489 18:0.48470843 19:0.752706707 
32768.0 1:0.16666667 2:0.0 3:0.0 4:0.4 5:0.619 6:0.25 7:0.1579 8:0.1111 9:2.5203 10:0.0966 11:0.0 12:0.0 13:0.0 14:0.7777777777777778 15:0.778 16:0.2719921458574673 17:0.37714284658432007 18:0.26699134 19:0.366975307 
30530.513828942047 1:1.0 2:1.0 3:1.0 4:1.0 5:0.6364 6:0.5238 7:0.45 8:0.3684 9:2.2615 10:0.2857 11:0.1585 12:0.0 13:0.0 14:0.5263157894736842 15:0.526 16:0.5698298590253148 17:0.6461538672447205 18:0.43297101 19:0.733400106 
32768.0 1:0.6 2:0.25 3:0.6666667 4:0.47368422 5:0.625 6:0.4667 7:0.3571 8:0.3077 9:2.2889 10:0.0589 11:0.0 12:0.0 13:0.0 14:0.7142857142857143 15:0.714 16:0.36691105829623544 17:0.5517241358757019 18:0.31066176 19:0.444393545 
32768.0 1:0.33333334 2:0.0 3:0.0 4:0.61538464 5:0.6154 6:0.4 7:0.2917 8:0.2174 9:2.5876 10:0.04 11:0.0 12:0.0 13:0.0 14:0.6666666666666666 15:0.667 16:0.5698298590253147 17:0.6702702641487122 18:0.35836386 19:0.616443694 
32768.0 1:0.25 2:0.0 3:0.0 4:0.4 5:0.6667 6:0.4706 7:0.4375 8:0.4 9:2.4444 10:0.2341 11:0.0 12:0.0 13:0.0 14:0.5333333333333333 15:0.533 16:0.3792256004442221 17:0.6074073910713196 18:0.37971823 19:0.389065385 
32768.0 1:0.75 2:0.33333334 3:0.33333334 4:0.33333334 5:0.5625 6:0.3333 7:0.2143 8:0.1538 9:2.1976 10:0.0 11:0.0 12:0.0 13:0.0 14:0.9 15:0.9 16:0.4586388228702942 17:0.6666666865348816 18:0.28962418 19:0.657395899 
32768.0 1:1.0 2:1.0 3:1.0 4:0.4848485 5:0.4667 6:0.2069 7:0.0714 8:0.037 9:2.1269 10:0.0345 11:0.0 12:0.0 13:0.0 14:0.68 15:0.68 16:0.31263347321693413 17:0.5265306234359741 18:0.22908456 19:0.424064487 
32768.0 1:0.6666667 2:0.0 3:0.5 4:0.33333334 5:0.5 6:0.2222 7:0.0 8:0.0 9:1.661 10:0.0 11:0.0 12:0.0 13:0.0 14:0.8571428571428571 15:0.857 16:0.25038440225125846 17:0.47058823704719543 18:0.26174242 19:0.345288873 
32768.0 1:0.6666667 2:0.6666667 3:0.6666667 4:0.61904764 5:0.6923 6:0.56 7:0.5417 8:0.5217 9:2.887 10:0.12 11:0.0 12:0.0 13:0.0 14:0.4375 15:0.438 16:0.6466455383598386 17:0.7575757503509521 18:0.46133496 19:0.704209864 
32768.0 1:1.0 2:1.0 3:1.0 4:0.6363636 5:0.9444 6:0.8824 7:0.8125 8:0.8 9:2.5102 10:0.0 11:0.0 12:0.0 13:0.0 14:0.38095238095238093 15:0.381 16:0.7012038173747251 17:0.896774172782898 18:0.45680147 19:0.635722101 
32768.0 1:1.0 2:1.0 3:1.0 4:0.5714286 5:0.8 6:0.7143 7:0.6154 8:0.5833 9:2.4391 10:0.0 11:0.0 12:0.0 13:0.0 14:0.47368421052631576 15:0.474 16:0.5489110395872984 17:0.7793103456497192 18:0.43276515 19:0.608660161 
32768.0 1:0.0 2:1.0 3:0.0 4:0.4375 5:0.5294 6:0.125 7:0.0 8:0.0 9:1.9002 10:0.0 11:0.0 12:0.0 13:0.0 14:0.75 15:0.75 16:0.2838594195162241 17:0.5120000243186951 18:0.24065934 19:0.268492371 
32768.0 1:0.2 2:0.0 3:0.0 4:0.6666667 5:0.6818 6:0.4286 7:0.4 8:0.3684 9:2.584 10:0.0704 11:0.0467 12:0.0 13:0.0 14:0.5238095238095238 15:0.524 16:0.46126937548767805 17:0.5641025900840759 18:0.35459669 19:0.52417016 
32768.0 1:0.16666667 2:0.0 3:0.0 4:0.4516129 5:0.7 6:0.4211 7:0.2222 8:0.1176 9:1.3478 10:0.0 11:0.0 12:0.0 13:0.0 14:0.5769230769230769 15:0.577 16:0.33452344127189537 17:0.6358974575996399 18:0.23511905 19:0.394410402 
32768.0 1:0.5 2:0.0 3:0.0 4:0.4 5:0.5833 6:0.2727 7:0.1 8:0.0 9:2.018 10:0.0 11:0.0 12:0.0 13:0.0 14:0.7 15:0.7 16:0.39186645379236285 17:0.523809552192688 18:0.2985348 19:0.345424503 
32768.0 1:0.6 2:0.5 3:0.0 4:1.0 5:0.5897 6:0.4211 7:0.3514 8:0.3333 9:2.6053 10:0.1624 11:0.0 12:0.0 13:0.0 14:0.5416666666666666 15:0.542 16:0.6229123405048081 17:0.7428571581840515 18:0.36109287 19:0.719788611 
10816.952069381352 1:0.6666667 2:0.5 3:0.5 4:0.625 5:0.8462 6:0.6667 7:0.5455 8:0.5 9:2.5535 10:0.0 11:0.0 12:0.0 13:0.0 14:0.42857142857142855 15:0.429 16:0.4053790901300305 17:0.871999979019165 18:0.38902545 19:0.748139203 
32768.0 1:0.0 2:0.5 3:0.0 4:0.34615386 5:0.619 6:0.2 7:0.0526 8:0.0 9:2.119 10:0.1066 11:0.0 12:0.0 13:0.0 14:0.8947368421052632 15:0.895 16:0.15850132822532978 17:0.37714284658432007 18:0.19205827 19:0.294987172 
32768.0 1:0.2 2:0.33333334 3:0.0 4:0.52380955 5:0.6111 6:0.3529 7:0.25 8:0.1333 9:2.5204 10:0.0 11:0.0 12:0.0 13:0.0 14:0.7333333333333333 15:0.733 16:0.4227668299251089 17:0.47096773982048035 18:0.29766082 19:0.512824118 
32768.0 1:0.16666667 2:0.6666667 3:0.0 4:0.3478261 5:0.5909 6:0.381 7:0.3 8:0.2632 9:2.2318 10:0.2857 11:0.0 12:0.0 13:0.0 14:0.75 15:0.75 16:0.35092518250062343 17:0.38787877559661865 18:0.36061077 19:0.440226942 
32768.0 1:0.1 2:0.0 3:0.0 4:1.0 5:0.5294 6:0.2727 7:0.0937 8:0.0 9:2.2941 10:0.1818 11:0.0 12:0.0 13:0.0 14:0.7 15:0.7 16:0.29424452023023234 17:0.37966102361679077 18:0.24671346 19:0.405283302 
32768.0 1:1.0 2:0.5 3:0.2 4:0.53125 5:0.5172 6:0.1786 7:0.037 8:0.0 9:2.3066 10:0.0 11:0.0 12:0.0 13:0.0 14:0.9523809523809523 15:0.952 16:0.3318515274222192 17:0.367441862821579 18:0.21267149 19:0.396115035 
27176.93890704097 1:0.6666667 2:0.6666667 3:0.6666667 4:0.95652175 5:0.6667 6:0.4138 7:0.3571 8:0.3333 9:2.81 10:0.0891 11:0.0 12:0.0 13:0.0 14:0.7894736842105263 15:0.789 16:0.5859595837967637 17:0.7538461685180664 18:0.36004704 19:0.629811943 
32768.0 1:0.5 2:0.0 3:0.0 4:0.92 5:0.6207 6:0.5 7:0.4444 8:0.4231 9:2.7043 10:0.0714 11:0.0 12:0.0 13:0.0 14:0.5454545454545454 15:0.545 16:0.5929564029585342 17:0.7155555486679077 18:0.3897386 19:0.707456112 
32768.0 1:0.4 2:0.33333334 3:0.33333334 4:0.6666667 5:0.8125 6:0.7333 7:0.7143 8:0.6923 9:2.0525 10:0.0606 11:0.0 12:0.0 13:0.0 14:0.47619047619047616 15:0.476 16:0.5588294775949223 17:0.800000011920929 18:0.41139706 19:0.553747654 
32768.0 1:0.16666667 2:0.33333334 3:1.0 4:0.5833333 5:0.6154 6:0.48 7:0.3333 8:0.2174 9:2.6141 10:0.0 11:0.0 12:0.0 13:0.0 14:0.625 15:0.625 16:0.6082459614150048 17:0.7333333492279053 18:0.38649776 19:0.694346905 
32768.0 1:0.0 2:0.0 3:0.0 4:0.8636364 5:0.7778 6:0.7059 7:0.6875 8:0.6667 9:2.1094 10:0.1929 11:0.0 12:0.0 13:0.0 14:0.4583333333333333 15:0.458 16:0.5745024012927653 17:0.7885714173316956 18:0.41834525 19:0.574687541 
32768.0 1:0.2 2:0.33333334 3:0.0 4:0.5 5:0.6 6:0.4483 7:0.3214 8:0.2222 9:2.6479 10:0.1236 11:0.0 12:0.0 13:0.0 14:0.7222222222222222 15:0.722 16:0.4080604779324349 17:0.5384615659713745 18:0.33676282 19:0.431132317 
32768.0 1:0.25 2:0.0 3:0.0 4:0.5 5:0.619 6:0.5 7:0.3684 8:0.3333 9:2.5303 10:0.0 11:0.0 12:0.0 13:0.0 14:0.5625 15:0.563 16:0.6573262189923926 17:0.6571428775787354 18:0.42160738 19:0.607616007 
4727.969060575371 1:0.2857143 2:0.0 3:0.2 4:0.71428573 5:0.72 6:0.5 7:0.4348 8:0.3636 9:3.2236 10:0.125 11:0.0 12:0.0 13:0.0 14:0.5 15:0.5 16:0.6117418054838213 17:0.5714285969734192 18:0.43980057 19:0.531895041 
32768.0 1:0.5 2:0.0 3:0.0 4:0.26086956 5:0.4375 6:0.0667 7:0.0 8:0.0 9:1.7093 10:0.0 11:0.0 12:0.0 13:0.0 14:0.7857142857142857 15:0.786 16:0.20007544710410477 17:0.4275861978530884 18:0.18474265 19:0.314201832 
32768.0 1:0.22222222 2:0.16666667 3:0.0 4:0.58064514 5:0.5625 6:0.4516 7:0.3667 8:0.3103 9:2.5478 10:0.0323 11:0.0 12:0.0 13:0.0 14:0.7142857142857143 15:0.714 16:0.5180458964263976 17:0.6711111068725586 18:0.33686156 19:0.618578911 
20161.877235803644 1:1.0 2:1.0 3:1.0 4:1.0 5:0.5833 6:0.5455 7:0.5 8:0.4444 9:1.1329 10:0.0455 11:0.0 12:0.0 13:0.0 14:0.625 15:0.625 16:0.4308768009695739 17:0.723809540271759 18:0.32227564 19:0.371336013 
17406.092545086 1:1.0 2:0.0 3:1.0 4:0.3888889 5:0.6154 6:0.25 7:0.0909 8:0.0 9:2.2894 10:0.0 11:0.0 12:0.0 13:0.0 14:0.7692307692307693 15:0.769 16:0.2391341432601864 17:0.29600000381469727 18:0.27601305 19:0.367624015 
32768.0 1:0.5 2:0.6666667 3:0.25 4:1.0 5:0.9 6:0.8421 7:0.8333 8:0.8235 9:2.2194 10:0.1764 11:0.0621 12:0.0 13:0.0 14:0.37037037037037035 15:0.37 16:0.6451776304935679 17:0.892307698726654 18:0.46417051 19:0.681867182 
32768.0 1:0.14285715 2:1.0 3:0.0 4:0.47619048 5:0.6154 6:0.36 7:0.3333 8:0.3043 9:2.5491 10:0.04 11:0.0 12:0.0 13:0.0 14:0.6923076923076923 15:0.692 16:0.5284717665026616 17:0.6518518328666687 18:0.32717949 19:0.572802186 
32768.0 1:0.5 2:0.5 3:0.5 4:0.7307692 5:0.9565 6:0.8636 7:0.7619 8:0.7 9:2.6053 10:0.1619 11:0.0 12:0.0 13:0.0 14:0.4444444444444444 15:0.444 16:0.6194457340359923 17:0.8270270228385925 18:0.46743012 19:0.594611347 
32768.0 1:0.4 2:0.0 3:0.0 4:0.44444445 5:0.6154 6:0.4 7:0.375 8:0.3478 9:2.283 10:0.0 11:0.0 12:0.0 13:0.0 14:0.5714285714285714 15:0.571 16:0.2585148284879898 17:0.5306122303009033 18:0.32198184 19:0.40169391 
32768.0 1:0.75 2:0.0 3:0.0 4:0.51724136 5:0.5769 6:0.44 7:0.375 8:0.3043 9:2.5682 10:0.04 11:0.0 12:0.0 13:0.0 14:0.5454545454545454 15:0.545 16:0.46929855335883097 17:0.6222222447395325 18:0.37792532 19:0.503427148 
32768.0 1:0.25 2:0.0 3:0.0 4:0.3529412 5:0.6667 6:0.4545 7:0.3 8:0.1111 9:1.534 10:0.0545 11:0.0 12:0.0 13:0.0 14:0.6923076923076923 15:0.692 16:0.4153710093919646 17:0.5333333611488342 18:0.326546 19:0.417872906 
32768.0 1:0.33333334 2:1.0 3:0.0 4:0.5 5:0.5625 6:0.4 7:0.2857 8:0.2308 9:1.9459 10:0.0 11:0.0 12:0.0 13:0.0 14:0.7 15:0.7 16:0.5484576632961129 17:0.800000011920929 18:0.34854984 19:0.778476417 
32768.0 1:0.42857143 2:0.2 3:0.2 4:0.6666667 5:0.697 6:0.5938 7:0.5161 8:0.4333 9:3.2418 10:0.0991 11:0.0 12:0.0 13:0.0 14:0.7391304347826086 15:0.739 16:0.575672892120166 17:0.6212766170501709 18:0.44364767 19:0.603480995 
32768.0 1:0.5 2:0.33333334 3:0.33333334 4:0.45 5:0.6875 6:0.4667 7:0.3571 8:0.2308 9:2.704 10:0.0 11:0.0 12:0.0 13:0.0 14:0.5 15:0.5 16:0.5066409731010438 17:0.7259259223937988 18:0.38005515 19:0.58984369 
32768.0 1:0.5 2:0.0 3:0.0 4:0.8095238 5:0.56 6:0.375 7:0.2174 8:0.1364 9:2.209 10:0.0833 11:0.0 12:0.0 13:0.0 14:0.875 15:0.875 16:0.5153542746874279 17:0.5333333611488342 18:0.31391738 19:0.552300394 
32768.0 1:0.5 2:1.0 3:0.0 4:0.3 5:0.5333 6:0.1429 7:0.0 8:0.0 9:2.0962 10:0.0 11:0.0 12:0.0 13:0.0 14:0.8333333333333334 15:0.833 16:0.2680894517653228 17:0.4444444477558136 18:0.21151961 19:0.262450486 
32768.0 1:0.33333334 2:1.0 3:0.0 4:0.6666667 5:0.8333 6:0.3636 7:0.2 8:0.0 9:1.1155 10:0.0303 11:0.0 12:0.0 13:0.0 14:0.6 15:0.6 16:0.3985082580939283 17:0.561904788017273 18:0.28910256 19:0.283272266 
32768.0 1:0.33333334 2:0.0 3:0.0 4:0.84615386 5:0.6667 6:0.3636 7:0.1 8:0.0 9:1.8972 10:0.2336 11:0.0 12:0.0 13:0.0 14:0.6923076923076923 15:0.692 16:0.2034196187620743 17:0.417391300201416 18:0.27639517 19:0.380133897 
32768.0 1:0.2 2:0.5 3:0.0 4:0.5714286 5:0.8235 6:0.625 7:0.4667 8:0.2857 9:2.1445 10:0.0757 11:0.0 12:0.0 13:0.0 14:0.5555555555555556 15:0.556 16:0.44159969529674464 17:0.7586206793785095 18:0.36077373 19:0.435240597 
32768.0 1:0.4 2:0.33333334 3:0.33333334 4:0.6666667 5:0.7647 6:0.5625 7:0.4667 8:0.3571 9:3.0275 10:0.0 11:0.0 12:0.0 13:0.0 14:0.6 15:0.6 16:0.5439136383630272 17:0.6322580575942993 18:0.42324152 19:0.5563187 
24031.098982842894 1:0.6 2:0.0 3:0.0 4:0.5625 5:0.7368 6:0.5676 7:0.5 8:0.4286 9:3.4516 10:0.3367 11:0.0278 12:0.0 13:0.0 14:0.5833333333333334 15:0.583 16:0.5471100151971996 17:0.6000000238418579 18:0.44415797 19:0.629006863 
32768.0 1:0.375 2:0.2 3:0.0 4:0.84615386 5:0.6 6:0.4706 7:0.3333 8:0.2187 9:2.6815 10:0.1176 11:0.0606 12:0.0 13:0.0 14:0.6190476190476191 15:0.619 16:0.5873233775501752 17:0.6465116143226624 18:0.34747868 19:0.65021807 
15498.597159180254 1:0.0 2:0.5 3:1.0 4:0.57894737 5:0.8095 6:0.7 7:0.6316 8:0.5556 9:3.3652 10:0.1 11:0.1053 12:0.0 13:0.0 14:0.26666666666666666 15:0.267 16:0.6746166704533196 17:0.8129032254219055 18:0.51109391 19:0.856654465 
32768.0 1:0.5 2:1.0 3:0.2 4:0.625 5:0.6087 6:0.4091 7:0.381 8:0.35 9:2.4987 10:0.0455 11:0.0 12:0.0 13:0.0 14:0.6111111111111112 15:0.611 16:0.5697493815786121 17:0.6270270347595215 18:0.38327899 19:0.59877336 
32768.0 1:0.0 2:1.0 3:0.0 4:0.33333334 5:0.4545 6:0.2 7:0.0 8:0.0 9:1.3636 10:0.0 11:0.0 12:0.0 13:0.0 14:1.1666666666666667 15:1.167 16:0.2660334273919621 17:0.6000000238418579 18:0.24067599 19:0.318439633 
32768.0 1:0.4 2:0.33333334 3:0.33333334 4:1.0 5:0.7241 6:0.6429 7:0.6296 8:0.6154 9:3.1364 10:0.2143 11:0.037 12:0.0 13:0.0 14:0.4090909090909091 15:0.409 16:0.6907458683284318 17:0.7404255270957947 18:0.50732295 19:0.720330238 
32768.0 1:0.6666667 2:0.0 3:0.0 4:0.0 5:0.88 6:0.5833 7:0.4348 8:0.3182 9:2.9393 10:0.4631 11:0.0358 12:0.0 13:0.0 14:0.38461538461538464 15:0.385 16:0.48464614267438955 17:0.7599999904632568 18:0.39142787 19:0.595199287 
32768.0 1:0.5 2:1.0 3:0.5 4:1.0 5:0.9583 6:0.913 7:0.9091 8:0.9048 9:2.8535 10:0.1985 11:0.1186 12:0.0 13:0.0 14:0.36 15:0.36 16:0.6835505988666775 17:0.9257143139839172 18:0.48068356 19:0.669203043 
32768.0 1:1.0 2:0.0 3:1.0 4:0.375 5:0.6 6:0.3333 7:0.125 8:0.0 9:1.3553 10:0.0689 11:0.0 12:0.0 13:0.0 14:0.6923076923076923 15:0.692 16:0.3099690168909842 17:0.5052631497383118 18:0.26647727 19:0.209797025 
32768.0 1:0.6 2:0.25 3:0.25 4:0.42424244 5:0.5455 6:0.375 7:0.2903 8:0.2333 9:2.4495 10:0.0991 11:0.0 12:0.0 13:0.0 14:0.6086956521739131 15:0.609 16:0.48171183958841046 17:0.5361701846122742 18:0.34153531 19:0.491231352 
32768.0 1:0.0 2:0.0 3:0.0 4:0.33333334 5:0.4444 6:0.1765 7:0.0625 8:0.0 9:1.7422 10:0.0588 11:0.0 12:0.0 13:0.0 14:1.0769230769230769 15:1.077 16:0.08275862068965519 17:0.44516128301620483 18:0.27061404 19:0.274602652 
20215.977901283703 1:0.5 2:1.0 3:1.0 4:1.0 5:0.8333 6:0.7241 7:0.6429 8:0.5926 9:3.6061 10:0.3103 11:0.0714 12:0.0 13:0.0 14:0.375 15:0.375 16:0.7227880986594436 17:0.8040816187858582 18:0.56308804 19:0.766038597 
32768.0 1:0.33333334 2:0.0 3:0.0 4:0.45454547 5:0.4138 6:0.1429 7:0.0 8:0.0 9:1.6207 10:0.0 11:0.0 12:0.0 13:0.0 14:0.9230769230769231 15:0.923 16:0.2947501388995384 17:0.5379310250282288 18:0.17152392 19:0.539737701 
32768.0 1:0.0 2:0.33333334 3:0.0 4:0.8 5:0.45 6:0.1579 7:0.0 8:0.0 9:1.6133 10:0.1053 11:0.0 12:0.0 13:0.0 14:0.9090909090909091 15:0.909 16:0.2784005845255275 17:0.5130434632301331 18:0.19944853 19:0.334205538 
32768.0 1:0.6666667 2:0.5 3:0.5 4:0.53333336 5:0.6667 6:0.5 7:0.4615 8:0.4167 9:2.5382 10:0.0 11:0.0 12:0.0 13:0.0 14:0.7 15:0.7 16:0.5235570229841252 17:0.800000011920929 18:0.43376225 19:0.533052385 
32768.0 1:1.0 2:1.0 3:1.0 4:1.0 5:0.6571 6:0.5588 7:0.4848 8:0.4375 9:2.8366 10:0.2637 11:0.0 12:0.0 13:0.0 14:0.4444444444444444 15:0.444 16:0.647557370532997 17:0.7672727108001709 18:0.46177107 19:0.807914495 
32768.0 1:0.16666667 2:0.6666667 3:0.0 4:0.95454544 5:0.7143 6:0.35 7:0.2105 8:0.0556 9:2.3924 10:0.099 11:0.0 12:0.0 13:0.0 14:0.6521739130434783 15:0.652 16:0.39461361116135846 17:0.502439022064209 18:0.29523409 19:0.433036536 
32768.0 1:0.6 2:0.25 3:0.25 4:0.42307693 5:0.6842 6:0.5556 7:0.4118 8:0.3125 9:2.6085 10:0.0 11:0.0 12:0.0 13:0.0 14:0.45 15:0.45 16:0.5330304556668204 17:0.6742857098579407 18:0.37547368 19:0.556796312 
32768.0 1:1.0 2:0.0 3:1.0 4:0.875 5:0.7941 6:0.7273 7:0.6563 8:0.6129 9:3.5957 10:0.3185 11:0.0 12:0.0 13:0.0 14:0.45 15:0.45 16:0.7628964216604839 17:0.8212766051292419 18:0.49891215 19:0.783813655 
32768.0 1:0.6 2:0.33333334 3:0.33333334 4:0.35135135 5:0.5667 6:0.2069 7:0.1071 8:0.0741 9:2.5214 10:0.0312 11:0.0 12:0.0 13:0.0 14:0.7407407407407407 15:0.741 16:0.2559416510741295 17:0.4553191363811493 18:0.20376495 19:0.37033388 
32768.0 1:0.07692308 2:0.0 3:0.0 4:0.3181818 5:0.4857 6:0.2059 7:0.1212 8:0.0313 9:2.4063 10:0.0 11:0.0 12:0.0 13:0.0 14:0.8275862068965517 15:0.828 16:0.29068594909119033 17:0.4035087823867798 18:0.24699872 19:0.389995307 
32768.0 1:0.33333334 2:0.25 3:0.0 4:0.64 5:0.8095 6:0.5 7:0.4737 8:0.4444 9:2.9822 10:0.1238 11:0.0 12:0.0 13:0.0 14:0.6086956521739131 15:0.609 16:0.4664508108122824 17:0.6594594717025757 18:0.37944496 19:0.507323205 
32768.0 1:0.5 2:0.5 3:0.5 4:0.52 5:0.75 6:0.6452 7:0.6 8:0.5517 9:3.4335 10:0.2946 11:0.0 12:0.0 13:0.0 14:0.5238095238095238 15:0.524 16:0.5139936536787196 17:0.6666666865348816 18:0.47654501 19:0.595559657 
32768.0 1:0.5 2:0.33333334 3:0.33333334 4:0.4375 5:0.5714 6:0.3846 7:0.25 8:0.0909 9:1.9768 10:0.0 11:0.0 12:0.0 13:0.0 14:0.6 15:0.6 16:0.5601269752811366 17:0.6666666865348816 18:0.34434524 19:0.617165029 
32768.0 1:0.5 2:0.0 3:0.0 4:0.36 5:0.5185 6:0.3846 7:0.24 8:0.1667 9:2.2034 10:0.0385 11:0.0 12:0.0 13:0.0 14:0.8571428571428571 15:0.857 16:0.42276682992510883 17:0.6909090876579285 18:0.28504274 19:0.606561363 
32768.0 1:0.5 2:0.5 3:0.0 4:0.5185185 5:0.7895 6:0.3889 7:0.1176 8:0.0 9:1.5638 10:0.0231 11:0.0 12:0.0 13:0.0 14:0.625 15:0.625 16:0.3462499757133787 17:0.4810810685157776 18:0.21235632 19:0.38494131 
32768.0 1:0.16666667 2:0.6666667 3:0.0 4:0.4090909 5:0.5882 6:0.25 7:0.1333 8:0.0 9:2.3613 10:0.0616 11:0.0 12:0.0 13:0.0 14:0.7333333333333333 15:0.733 16:0.334080701430633 17:0.4848484992980957 18:0.25829893 19:0.356170088 
32768.0 1:0.2857143 2:1.0 3:0.14285715 4:0.5 5:0.5455 6:0.2381 7:0.15 8:0.1053 9:2.3574 10:0.0 11:0.0 12:0.0 13:0.0 14:0.6842105263157895 15:0.684 16:0.3247500710940803 17:0.5384615659713745 18:0.26737484 19:0.389282852 
32768.0 1:0.25 2:0.5 3:0.0 4:0.52380955 5:0.5882 6:0.3125 7:0.1333 8:0.0714 9:2.0429 10:0.0518 11:0.0 12:0.0 13:0.0 14:0.625 15:0.625 16:0.36666584050534134 17:0.6000000238418579 18:0.25934214 19:0.565481663 
32768.0 1:0.4 2:0.33333334 3:0.0 4:0.5769231 5:0.7143 6:0.5185 7:0.4615 8:0.4 9:3.1551 10:0.1544 11:0.0 12:0.0 13:0.0 14:0.7222222222222222 15:0.722 16:0.5556814956137082 17:0.5902438759803772 18:0.42066913 19:0.641425848 
32768.0 1:0.8 2:0.6666667 3:0.6666667 4:0.41935483 5:0.5556 6:0.3077 7:0.24 8:0.1667 9:2.439 10:0.0385 11:0.0 12:0.0 13:0.0 14:0.75 15:0.75 16:0.38394167691433445 17:0.5853658318519592 18:0.30065225 19:0.579638779 
32768.0 1:0.25 2:1.0 3:0.0 4:0.35 5:0.5833 6:0.1818 7:0.0 8:0.0 9:0.983 10:0.0 11:0.0 12:0.0 13:0.0 14:0.8125 15:0.813 16:0.15486296566393476 17:0.40869563817977905 18:0.22220042 19:0.152777776 
32768.0 1:1.0 2:1.0 3:0.0 4:0.39130434 5:0.45 6:0.2632 7:0.1667 8:0.0588 9:1.7581 10:0.0 11:0.0 12:0.0 13:0.0 14:1.0 15:1.0 16:0.36737480043034015 17:0.6275861859321594 18:0.25833333 19:0.51325947 
32768.0 1:0.2 2:0.0 3:0.0 4:0.2173913 5:0.4 6:0.0 7:0.0 8:0.0 9:1.3425 10:0.0 11:0.0 12:0.0 13:0.0 14:0.9333333333333333 15:0.933 16:0.07741935483870968 17:0.31111112236976624 18:0.13929924 19:0.172911629 
32768.0 1:0.16666667 2:1.0 3:0.0 4:0.28 5:0.5 6:0.2941 7:0.1875 8:0.0667 9:1.9071 10:0.0843 11:0.0 12:0.0 13:0.0 14:0.7647058823529411 15:0.765 16:0.31449519282534466 17:0.42424243688583374 18:0.24796593 19:0.4339284 
32768.0 1:0.4 2:0.33333334 3:0.33333334 4:0.54545456 5:0.7895 6:0.6111 7:0.4706 8:0.375 9:2.5921 10:0.0404 11:0.0 12:0.0 13:0.0 14:0.6842105263157895 15:0.684 16:0.4241681283771363 17:0.6709677577018738 18:0.37442105 19:0.463127047 
32768.0 1:0.5 2:0.25 3:0.25 4:0.516129 5:0.6818 6:0.4762 7:0.35 8:0.2632 9:2.3158 10:0.0547 11:0.0 12:0.0 13:0.0 14:0.6296296296296297 15:0.63 16:0.4286685823305748 17:0.5268292427062988 18:0.31725743 19:0.481575251 
32768.0 1:0.4 2:0.0 3:0.33333334 4:0.56 5:0.7826 6:0.5909 7:0.4286 8:0.3 9:3.1439 10:0.1631 11:0.0 12:0.0 13:0.0 14:0.5 15:0.5 16:0.5173586338472453 17:0.6342856884002686 18:0.41018553 19:0.512938559 
32768.0 1:0.25 2:0.0 3:0.0 4:0.4 5:0.6154 6:0.25 7:0.0909 8:0.0 9:0.8304 10:0.0 11:0.0 12:0.0 13:0.0 14:0.6875 15:0.688 16:0.22620047492699108 17:0.5360000133514404 18:0.20831044 19:0.237446725 
17017.62403515672 1:1.0 2:1.0 3:1.0 4:1.0 5:0.7353 6:0.6364 7:0.5938 8:0.5484 9:3.1205 10:0.1212 11:0.0625 12:0.0645 13:0.0667 14:0.5294117647058824 15:0.529 16:0.5017923200903903 17:0.9714285731315613 18:0.44655172 19:0.558778942 
32768.0 1:0.25 2:1.0 3:0.0 4:0.5625 5:0.6429 6:0.2308 7:0.1667 8:0.0909 9:2.3789 10:0.0 11:0.0 12:0.0 13:0.0 14:0.75 15:0.75 16:0.3848945460247178 17:0.4399999976158142 18:0.30877976 19:0.445100427 
32768.0 1:0.25 2:0.5 3:0.0 4:0.375 5:0.75 6:0.5455 7:0.5 8:0.4444 9:1.7882 10:0.0 11:0.0 12:0.0 13:0.0 14:0.5384615384615384 15:0.538 16:0.42335891341873316 17:0.6857143044471741 18:0.31684492 19:0.495874673 
32768.0 1:1.0 2:1.0 3:1.0 4:1.0 5:0.8 6:0.6842 7:0.6667 8:0.6471 9:2.989 10:0.164 11:0.0483 12:0.0 13:0.0 14:0.42105263157894735 15:0.421 16:0.5607203494676943 17:0.7939394116401672 18:0.43652534 19:0.574654281 
32768.0 1:0.5 2:0.0 3:0.25 4:1.0 5:0.6667 6:0.5294 7:0.5 8:0.4667 9:2.4224 10:0.2341 11:0.0596 12:0.0636 13:0.0 14:0.6111111111111112 15:0.611 16:0.5146984563759415 17:0.7379310131072998 18:0.37971823 19:0.502226353 
2028.1059141760793 1:1.0 2:1.0 3:1.0 4:1.0 5:0.4 6:0.1579 7:0.0556 8:0.0 9:1.6404 10:0.0521 11:0.0 12:0.0 13:0.0 14:0.7857142857142857 15:0.786 16:0.17717192601858087 17:0.4516128897666931 18:0.20977871 19:0.494841009 
32768.0 1:0.0 2:1.0 3:0.0 4:0.2777778 5:0.4615 6:0.25 7:0.0909 8:0.0 9:1.6546 10:0.0 11:0.0 12:0.0 13:0.0 14:0.9090909090909091 15:0.909 16:0.26841587508796433 17:0.40869563817977905 18:0.26108059 19:0.390241235 
32768.0 1:0.6 2:1.0 3:0.33333334 4:0.5294118 5:0.7647 6:0.5625 7:0.5333 8:0.5 9:3.0081 10:0.0625 11:0.0 12:0.0 13:0.0 14:0.46153846153846156 15:0.462 16:0.5461980406105548 17:0.644444465637207 18:0.48249914 19:0.536130548 
26704.418164443225 1:0.5 2:1.0 3:0.2 4:1.0 5:0.8 6:0.5833 7:0.5652 8:0.5455 9:3.3321 10:0.191 11:0.0 12:0.0 13:0.0 14:0.5263157894736842 15:0.526 16:0.6935817977351398 17:0.7538461685180664 18:0.49754986 19:0.755624473 
32768.0 1:0.5 2:0.0 3:0.0 4:0.4516129 5:0.5926 6:0.3462 7:0.2 8:0.1667 9:2.7267 10:0.061 11:0.0 12:0.0 13:0.0 14:0.7727272727272727 15:0.773 16:0.3792256004442221 17:0.40888887643814087 18:0.32056319 19:0.423392981 
32768.0 1:0.33333334 2:0.33333334 3:0.33333334 4:1.0 5:0.7143 6:0.5926 7:0.5769 8:0.56 9:3.0465 10:0.1328 11:0.0 12:0.0 13:0.0 14:0.5882352941176471 15:0.588 16:0.6849836323106048 17:0.8514285683631897 18:0.46133496 19:0.779304981 
32768.0 1:0.0 2:1.0 3:0.0 4:0.5 5:0.5333 6:0.1429 7:0.0769 8:0.0 9:1.912 10:0.0 11:0.0 12:0.0 13:0.0 14:0.8181818181818182 15:0.818 16:0.24409204546700786 17:0.539130449295044 18:0.24289216 19:0.401092678 
32768.0 1:0.5 2:0.6666667 3:0.0 4:0.5185185 5:0.7059 6:0.6061 7:0.5 8:0.4194 9:3.1717 10:0.0606 11:0.0625 12:0.0 13:0.0 14:0.6842105263157895 15:0.684 16:0.5422915800567513 17:0.6487804651260376 18:0.37305339 19:0.641067564 
32768.0 1:0.0 2:0.0 3:0.0 4:0.36363637 5:0.381 6:0.1 7:0.0 8:0.0 9:1.5238 10:0.0 11:0.0 12:0.0 13:0.0 14:1.2307692307692308 15:1.231 16:0.1 17:0.3333333432674408 18:0.20838745 19:0.296704531 
32768.0 1:0.0 2:0.0 3:0.0 4:0.71428573 5:0.625 6:0.4667 7:0.2857 8:0.2308 9:1.6068 10:0.0943 11:0.0466 12:0.0 13:0.0 14:0.7142857142857143 15:0.714 16:0.28673155155538743 17:0.5290322303771973 18:0.28285846 19:0.430025429 
32768.0 1:0.2 2:0.0 3:0.0 4:0.25925925 5:0.6 6:0.2632 7:0.1111 8:0.0 9:2.1776 10:0.0 11:0.0 12:0.0 13:0.0 14:0.7368421052631579 15:0.737 16:0.2506091388438723 17:0.6129032373428345 18:0.23633333 19:0.365366787 
15768.839937335058 1:0.5 2:1.0 3:1.0 4:1.0 5:0.9333 6:0.7931 7:0.6429 8:0.4815 9:3.8826 10:0.1849 11:0.031 12:0.0 13:0.0 14:0.18518518518518517 15:0.185 16:0.790398659277507 17:0.8456140160560608 18:0.55423387 19:0.831680954 
32768.0 1:0.5 2:0.5 3:0.5 4:0.53333336 5:0.7857 6:0.6154 7:0.5 8:0.4545 9:2.9152 10:0.0 11:0.0 12:0.0 13:0.0 14:0.6923076923076923 15:0.692 16:0.4642864166085639 17:0.761904776096344 18:0.40912698 19:0.573295295 
32768.0 1:0.16666667 2:0.0 3:0.0 4:0.5 5:0.6667 6:0.4348 7:0.2273 8:0.1429 9:1.994 10:0.0413 11:0.0 12:0.0 13:0.0 14:0.6428571428571429 15:0.643 16:0.43563213184678856 17:0.5319148898124695 18:0.28890625 19:0.558480561 
32768.0 1:1.0 2:0.6666667 3:0.0 4:1.0 5:0.8421 6:0.7222 7:0.6471 8:0.5625 9:3.2377 10:0.1015 11:0.1075 12:0.0 13:0.0 14:0.3 15:0.3 16:0.7280474113016298 17:0.7837837934494019 18:0.50123355 19:0.766417921 
32768.0 1:0.6666667 2:0.0 3:0.0 4:0.44 5:0.5652 6:0.5 7:0.4286 8:0.35 9:2.4391 10:0.0455 11:0.0 12:0.0 13:0.0 14:0.6111111111111112 15:0.611 16:0.5416885259085182 17:0.6051282286643982 18:0.41068296 19:0.53295207 
32768.0 1:0.33333334 2:1.0 3:0.0 4:0.47619048 5:0.7778 6:0.5882 7:0.5 8:0.4 9:3.0906 10:0.0 11:0.0 12:0.0 13:0.0 14:0.47058823529411764 15:0.471 16:0.529379314621556 17:0.7241379022598267 18:0.39985994 19:0.563667536 
32768.0 1:0.33333334 2:0.33333334 3:0.0 4:0.42307693 5:0.5385 6:0.28 7:0.1667 8:0.087 9:2.172 10:0.12 11:0.0 12:0.0 13:0.0 14:1.0666666666666667 15:1.067 16:0.37048951772704936 17:0.43870967626571655 18:0.2742674 19:0.391134262 
32768.0 1:0.6 2:0.33333334 3:0.0 4:1.0 5:0.875 6:0.6667 7:0.5 8:0.3846 9:2.7616 10:0.2702 11:0.0 12:0.0 13:0.0 14:0.47058823529411764 15:0.471 16:0.5371643045424611 17:0.5703703761100769 18:0.44126003 19:0.574066818 
32768.0 1:0.71428573 2:1.0 3:0.6 4:0.6923077 5:0.7667 6:0.6897 7:0.6429 8:0.5926 9:3.4703 10:0.1379 11:0.0 12:0.0 13:0.0 14:0.47368421052631576 15:0.474 16:0.7895090875323613 17:0.8390243649482727 18:0.53106519 19:0.787290752 
4556.174579043619 1:0.33333334 2:0.0 3:0.0 4:0.53333336 5:0.5667 6:0.4138 7:0.3214 8:0.2593 9:2.5852 10:0.0547 11:0.0 12:0.0 13:0.0 14:0.44 15:0.44 16:0.5558743328860167 17:0.6888889074325562 18:0.35300739 19:0.549982011 
32768.0 1:0.25 2:0.0 3:0.0 4:0.4090909 5:0.6316 6:0.3889 7:0.1765 8:0.125 9:2.5954 10:0.0 11:0.0 12:0.0 13:0.0 14:0.7333333333333333 15:0.733 16:0.3835888792978956 17:0.5548387169837952 18:0.31671651 19:0.582197964 
32768.0 1:0.5 2:0.5 3:0.5 4:0.6666667 5:0.7083 6:0.5652 7:0.4545 8:0.381 9:2.7286 10:0.1304 11:0.0 12:0.0 13:0.0 14:0.5833333333333334 15:0.583 16:0.7031515005561163 17:0.8640000224113464 18:0.42685897 19:0.674928486 
276.4498048158618 1:1.0 2:1.0 3:1.0 4:1.0 5:0.75 6:0.6842 7:0.6667 8:0.6471 9:2.7828 10:0.0427 11:0.0 12:0.0 13:0.0 14:0.42857142857142855 15:0.429 16:0.5806042531719473 17:0.7567567825317383 18:0.43531746 19:0.669017315 
32768.0 1:0.6666667 2:0.5 3:0.5 4:0.46666667 5:0.5714 6:0.5 7:0.4737 8:0.4444 9:2.1373 10:0.05 11:0.0 12:0.0 13:0.0 14:0.7777777777777778 15:0.778 16:0.6541737410456433 17:0.7789473533630371 18:0.3862782 19:0.691274643 
32768.0 1:0.0 2:0.0 3:0.0 4:0.36363637 5:0.4762 6:0.25 7:0.1053 8:0.0556 9:1.8095 10:0.1 11:0.0 12:0.0 13:0.0 14:0.6428571428571429 15:0.643 16:0.35024589666114747 17:0.5034482479095459 18:0.26856061 19:0.482778788 
32768.0 1:0.16666667 2:0.0 3:0.0 4:0.53846157 5:0.5 6:0.3043 7:0.2273 8:0.1905 9:2.1047 10:0.087 11:0.0 12:0.0 13:0.0 14:0.631578947368421 15:0.632 16:0.44545332571813845 17:0.6051282286643982 18:0.31184124 19:0.505936325 
32768.0 1:1.0 2:0.0 3:1.0 4:0.6923077 5:0.7895 6:0.6111 7:0.5294 8:0.4375 9:3.069 10:0.1111 11:0.0 12:0.0 13:0.0 14:0.5 15:0.5 16:0.5723036486568135 17:0.8960000276565552 18:0.3995098 19:0.840515375 
32768.0 1:1.0 2:0.5 3:1.0 4:1.0 5:0.8438 6:0.6774 7:0.5333 8:0.3793 9:3.9926 10:0.129 11:0.0 12:0.0 13:0.0 14:0.17857142857142858 15:0.179 16:0.7735659151994664 17:0.8711864352226257 18:0.50529234 19:0.907048047 
32768.0 1:1.0 2:1.0 3:1.0 4:0.4090909 5:0.5714 6:0.3846 7:0.3333 8:0.2727 9:0.9145 10:0.0 11:0.0 12:0.0 13:0.0 14:0.625 15:0.625 16:0.3728360618220286 17:0.5793103575706482 18:0.26200181 19:0.383134633 
32768.0 1:0.0 2:0.0 3:0.0 4:0.34375 5:0.4231 6:0.32 7:0.25 8:0.1739 9:1.8529 10:0.0 11:0.0 12:0.0 13:0.0 14:0.8421052631578947 15:0.842 16:0.3598481208728361 17:0.5897436141967773 18:0.2855871 19:0.444801807 
32768.0 1:0.33333334 2:1.0 3:0.0 4:0.8695652 5:0.75 6:0.6316 7:0.5 8:0.3529 9:2.2626 10:0.1291 11:0.0 12:0.0 13:0.0 14:0.48 15:0.48 16:0.5730663225629038 17:0.708108127117157 18:0.37729885 19:0.514422953 
32768.0 1:0.5 2:1.0 3:1.0 4:0.7916667 5:0.6071 6:0.4074 7:0.3462 8:0.32 9:2.675 10:0.1815 11:0.0 12:0.0 13:0.0 14:0.5217391304347826 15:0.522 16:0.4642523323549726 17:0.7268292903900146 18:0.34593047 19:0.53645426 
32768.0 1:0.22222222 2:1.0 3:0.0 4:0.5151515 5:0.5333 6:0.3103 7:0.2857 8:0.2593 9:2.4453 10:0.0 11:0.0 12:0.0 13:0.0 14:0.6818181818181818 15:0.682 16:0.464798995468744 17:0.6088888645172119 18:0.30433468 19:0.572994471 
32768.0 1:0.4 2:1.0 3:1.0 4:0.6333333 5:0.6667 6:0.4375 7:0.3226 8:0.2667 9:3.0604 10:0.1875 11:0.0 12:0.0 13:0.0 14:0.5652173913043478 15:0.565 16:0.4601040561205748 17:0.6431372761726379 18:0.34720986 19:0.553449929 
32768.0 1:0.25 2:0.0 3:0.0 4:0.4 5:0.5882 6:0.5 7:0.4 8:0.3571 9:2.1404 10:0.0 11:0.0 12:0.0 13:0.0 14:0.5238095238095238 15:0.524 16:0.48153820850111334 17:0.7448275685310364 18:0.32873264 19:0.509198368 
32768.0 1:0.0 2:1.0 3:0.0 4:0.35 5:0.5455 6:0.381 7:0.35 8:0.3158 9:2.0 10:0.1905 11:0.0 12:0.0 13:0.0 14:1.0 15:1.0 16:0.4153710093919646 17:0.634782612323761 18:0.34543808 19:0.531313121 
32768.0 1:0.6 2:0.0 3:0.33333334 4:0.5833333 5:0.619 6:0.4 7:0.2632 8:0.2222 9:2.6123 10:0.0483 11:0.0 12:0.0 13:0.0 14:0.5555555555555556 15:0.556 16:0.5441926126143295 17:0.5487179756164551 18:0.36001318 19:0.539811432 
32768.0 1:1.0 2:1.0 3:1.0 4:1.0 5:0.52 6:0.375 7:0.3478 8:0.3182 9:2.104 10:0.1077 11:0.0 12:0.0 13:0.0 14:0.8125 15:0.813 16:0.5200612651812024 17:0.6424242258071899 18:0.34465812 19:0.634143114 
32768.0 1:0.25 2:1.0 3:0.0 4:0.3181818 5:0.5 6:0.2632 7:0.1111 8:0.0588 9:1.974 10:0.0526 11:0.0 12:0.0 13:0.0 14:0.7333333333333333 15:0.733 16:0.27990460985168775 17:0.5354838967323303 18:0.28348649 19:0.347880155 
32768.0 1:0.25 2:0.0 3:0.0 4:0.3478261 5:0.5625 6:0.2667 7:0.1429 8:0.0769 9:1.8089 10:0.0 11:0.0 12:0.0 13:0.0 14:0.8125 15:0.813 16:0.328577067130957 17:0.49677419662475586 18:0.2467612 19:0.435309052 
32768.0 1:0.25 2:0.5 3:0.0 4:0.4347826 5:0.65 6:0.3158 7:0.1667 8:0.1176 9:2.7093 10:0.0526 11:0.0 12:0.0 13:0.0 14:0.7058823529411765 15:0.706 16:0.2573874452362166 17:0.4363636374473572 18:0.31569264 19:0.332407475 
32768.0 1:0.42857143 2:0.0 3:0.2 4:0.61538464 5:0.6667 6:0.4783 7:0.3182 8:0.1905 9:2.9112 10:0.082 11:0.0 12:0.0 13:0.0 14:0.6666666666666666 15:0.667 16:0.38394167691433445 17:0.6465116143226624 18:0.34317901 19:0.55551374 
32768.0 1:0.25 2:0.5 3:0.0 4:0.52380955 5:0.625 6:0.3043 7:0.1364 8:0.0952 9:2.5788 10:0.087 11:0.0 12:0.0 13:0.0 14:0.9333333333333333 15:0.933 16:0.21934591508071863 17:0.43225806951522827 18:0.25506423 19:0.209385514 
32768.0 1:0.75 2:0.33333334 3:0.33333334 4:0.5217391 5:0.6818 6:0.5238 7:0.35 8:0.2632 9:2.8783 10:0.0944 11:0.0 12:0.0 13:0.0 14:0.5 15:0.5 16:0.48702896945183133 17:0.6171428561210632 18:0.37199793 19:0.498855144 
32768.0 1:0.2 2:1.0 3:0.0 4:0.5652174 5:0.5714 6:0.4 7:0.2632 8:0.1111 9:2.3321 10:0.05 11:0.0 12:0.0 13:0.0 14:0.5625 15:0.563 16:0.5664275976702049 17:0.6399999856948853 18:0.34914361 19:0.753754437 
32768.0 1:0.33333334 2:1.0 3:0.0 4:0.23529412 5:0.4667 6:0.1429 7:0.0769 8:0.0 9:1.6434 10:0.0 11:0.0 12:0.0 13:0.0 14:0.9090909090909091 15:0.909 16:0.15400883399284498 17:0.4095238149166107 18:0.22802198 19:0.142038286 
23536.165105190434 1:0.25 2:1.0 3:0.0 4:1.0 5:0.8824 6:0.8125 7:0.7333 8:0.6429 9:2.2723 10:0.1136 11:0.0404 12:0.0433 13:0.0 14:0.391304347826087 15:0.391 16:0.6460529553340164 17:0.8540540337562561 18:0.45541101 19:0.641461074 
32768.0 1:0.16666667 2:0.0 3:0.0 4:0.3888889 5:0.5333 6:0.3103 7:0.1786 8:0.1111 9:2.5359 10:0.0 11:0.0 12:0.0 13:0.0 14:0.782608695652174 15:0.783 16:0.42580025717689907 17:0.4117647111415863 18:0.28714718 19:0.475394726 
32768.0 1:0.4 2:0.0 3:0.5 4:0.5833333 5:0.4783 6:0.2727 7:0.1429 8:0.05 9:1.8565 10:0.072 11:0.0 12:0.0 13:0.0 14:0.7058823529411765 15:0.706 16:0.44456404695343993 17:0.5257142782211304 18:0.25681159 19:0.43015638 
32768.0 1:0.75 2:0.6666667 3:0.6666667 4:0.39130434 5:0.625 6:0.3333 7:0.1429 8:0.0 9:2.1897 10:0.0 11:0.0 12:0.0 13:0.0 14:0.5882352941176471 15:0.588 16:0.29142015627585777 17:0.6516128778457642 18:0.25894051 19:0.401218504 
32768.0 1:0.14285715 2:0.33333334 3:0.0 4:0.325 5:0.5172 6:0.25 7:0.1481 8:0.0769 9:2.5258 10:0.0 11:0.0 12:0.0 13:0.0 14:0.7037037037037037 15:0.704 16:0.26084379090680054 17:0.4264150857925415 18:0.21226852 19:0.408608049 
32768.0 1:0.4 2:0.6666667 3:0.25 4:0.8333333 5:0.8421 6:0.5556 7:0.4706 8:0.375 9:1.8868 10:0.1524 11:0.0 12:0.0 13:0.0 14:0.5263157894736842 15:0.526 16:0.4298237034221648 17:0.7448275685310364 18:0.36203008 19:0.529479921 
32768.0 1:0.75 2:1.0 3:0.33333334 4:0.7 5:0.9412 6:0.875 7:0.8 8:0.7143 9:2.7762 10:0.1276 11:0.0 12:0.0 13:0.0 14:0.35 15:0.35 16:0.6849836323106048 17:0.834482729434967 18:0.50535948 19:0.654504955 
32768.0 1:1.0 2:1.0 3:1.0 4:0.5555556 5:0.7333 6:0.5714 7:0.5385 8:0.5 9:2.8823 10:0.0 11:0.0 12:0.0 13:0.0 14:0.5333333333333333 15:0.533 16:0.5614592396005443 17:0.7185184955596924 18:0.45405093 19:0.587621987 
32768.0 1:0.2 2:0.0 3:0.0 4:0.45 5:0.5714 6:0.25 7:0.1579 8:0.1111 9:2.0952 10:0.05 11:0.0 12:0.0 13:0.0 14:1.1666666666666667 15:1.167 16:0.23074347156684652 17:0.5360000133514404 18:0.27933842 19:0.320270032 
32768.0 1:0.4 2:0.33333334 3:0.33333334 4:0.7222222 5:0.8125 6:0.6 7:0.5714 8:0.5385 9:2.6946 10:0.1621 11:0.0 12:0.0 13:0.0 14:0.47058823529411764 15:0.471 16:0.5652839838926115 17:0.7034482955932617 18:0.4178643 19:0.604460955 
4214.706369483295 1:0.2 2:0.0 3:0.0 4:0.5294118 5:0.6667 6:0.5 7:0.3846 8:0.25 9:2.467 10:0.0 11:0.0 12:0.0 13:0.0 14:0.5833333333333334 15:0.583 16:0.5664275976702049 17:0.6800000071525574 18:0.41709559 19:0.695832074 
32768.0 1:0.2 2:0.0 3:0.0 4:0.5416667 5:0.68 6:0.4583 7:0.3478 8:0.3182 9:3.0365 10:0.0813 11:0.0 12:0.0 13:0.0 14:0.5 15:0.5 16:0.4806206935379915 17:0.6432432532310486 18:0.36153986 19:0.541053951 
18805.606127432235 1:1.0 2:0.0 3:0.0 4:0.5 5:0.6452 6:0.4667 7:0.3793 8:0.2857 9:3.1342 10:0.0 11:0.0 12:0.0 13:0.0 14:0.5555555555555556 15:0.556 16:0.5082483453930294 17:0.6399999856948853 18:0.38844086 19:0.576016128 
32768.0 1:1.0 2:0.0 3:0.0 4:0.6315789 5:0.8235 6:0.5625 7:0.4667 8:0.3571 9:2.4746 10:0.1497 11:0.1007 12:0.0 13:0.0 14:0.5555555555555556 15:0.556 16:0.4308040883688882 17:0.7259259223937988 18:0.39239515 19:0.479146212 
32768.0 1:0.5 2:0.5 3:0.5 4:0.7368421 5:0.9474 6:0.8333 7:0.8235 8:0.8125 9:2.5201 10:0.099 11:0.0 12:0.0 13:0.0 14:0.4 15:0.4 16:0.614642698278601 17:0.8592592477798462 18:0.4478032 19:0.616987765 
32768.0 1:0.25 2:0.0 3:0.0 4:1.0 5:0.7368 6:0.3889 7:0.2941 8:0.25 9:2.7527 10:0.2547 11:0.0 12:0.0 13:0.0 14:0.8461538461538461 15:0.846 16:0.21793932630982843 17:0.41290321946144104 18:0.34025628 19:0.458236188 
32768.0 1:0.25 2:0.2 3:0.2 4:0.5185185 5:0.6364 6:0.3333 7:0.25 8:0.2105 9:2.6311 10:0.0889 11:0.0 12:0.0 13:0.0 14:0.5 15:0.5 16:0.41234905435962177 17:0.5435897707939148 18:0.29571073 19:0.437980205 
32768.0 1:0.6666667 2:0.33333334 3:0.33333334 4:0.3809524 5:0.5294 6:0.3125 7:0.1333 8:0.0 9:2.0157 10:0.0 11:0.0 12:0.0 13:0.0 14:0.6153846153846154 15:0.615 16:0.47292560635690145 17:0.6666666865348816 18:0.30078259 19:0.721107423 
32768.0 1:0.0 2:0.0 3:0.0 4:0.36363637 5:0.5333 6:0.1429 7:0.0 8:0.0 9:2.0406 10:0.0 11:0.0 12:0.0 13:0.0 14:0.6875 15:0.688 16:0.2579718083800845 17:0.4137931168079376 18:0.20241228 19:0.278655857 
32768.0 1:0.2 2:0.0 3:0.0 4:0.45 5:0.6154 6:0.3333 7:0.2727 8:0.2 9:1.1107 10:0.0381 11:0.0416 12:0.0 13:0.0 14:0.7647058823529411 15:0.765 16:0.2842730530169298 17:0.5360000133514404 18:0.23913586 19:0.249702379 
32768.0 1:0.4 2:0.0 3:0.33333334 4:0.44 5:0.5417 6:0.2609 7:0.1818 8:0.1429 9:2.4503 10:0.0 11:0.0 12:0.0 13:0.0 14:0.8125 15:0.813 16:0.32655537816030233 17:0.5428571701049805 18:0.24708333 19:0.498930216 
32768.0 1:1.0 2:0.16666667 3:0.75 4:1.0 5:0.6452 6:0.5 7:0.4828 8:0.4643 9:2.8104 10:0.139 11:0.0 12:0.0 13:0.0 14:0.5 15:0.5 16:0.6528632839209909 17:0.7306122183799744 18:0.44033185 19:0.708678901 
32768.0 1:0.2 2:0.5 3:0.0 4:0.36363637 5:0.6667 6:0.3529 7:0.125 8:0.0667 9:2.7495 10:0.0 11:0.0 12:0.0 13:0.0 14:0.8125 15:0.813 16:0.2885802204868833 17:0.6064516305923462 18:0.25894051 19:0.45257476 
32768.0 1:0.16666667 2:0.33333334 3:0.0 4:0.47619048 5:0.5294 6:0.3125 7:0.2 8:0.0714 9:2.0229 10:0.1186 11:0.0 12:0.0 13:0.0 14:0.75 15:0.75 16:0.1639501404948062 17:0.5354838967323303 18:0.24626517 19:0.299200207 
32768.0 1:0.2 2:0.0 3:0.0 4:0.44444445 5:0.4737 6:0.2222 7:0.0588 8:0.0 9:1.8035 10:0.0 11:0.0 12:0.0 13:0.0 14:0.9090909090909091 15:0.909 16:0.3031336067799118 17:0.530434787273407 18:0.2210213 19:0.363665909 
32768.0 1:0.0 2:1.0 3:0.0 4:0.4074074 5:0.5833 6:0.3478 7:0.2273 8:0.1905 9:2.5403 10:0.0671 11:0.0 12:0.0 13:0.0 14:0.631578947368421 15:0.632 16:0.4029597219582795 17:0.5076923370361328 18:0.29527809 19:0.453832716 
32768.0 1:0.25 2:0.0 3:0.0 4:0.4516129 5:0.5769 6:0.32 7:0.2083 8:0.087 9:2.3851 10:0.0734 11:0.0 12:0.0 13:0.0 14:0.7391304347826086 15:0.739 16:0.3556512375627519 17:0.48444443941116333 18:0.26431179 19:0.460344464 
32768.0 1:0.25 2:0.0 3:0.0 4:0.35 5:0.5 6:0.2 7:0.1429 8:0.0769 9:1.8502 10:0.0 11:0.0 12:0.0 13:0.0 14:0.8333333333333334 15:0.833 16:0.3708983807147281 17:0.5120000243186951 18:0.2592933 19:0.499020189 
32768.0 1:1.0 2:1.0 3:1.0 4:0.57894737 5:0.6842 6:0.4444 7:0.2941 8:0.125 9:2.9065 10:0.0 11:0.0 12:0.0 13:0.0 14:0.4666666666666667 15:0.467 16:0.5707370735763648 17:0.7032257914543152 18:0.3825188 19:0.742277145 
4419.749968945411 1:0.8 2:0.6666667 3:0.25 4:0.73913044 5:0.7273 6:0.5313 7:0.4194 8:0.3 9:3.2133 10:0.0625 11:0.0 12:0.0 13:0.0 14:0.875 15:0.875 16:0.5585134708410223 17:0.6628571152687073 18:0.41140488 19:0.690015078 
1425.561131862098 1:0.75 2:0.6666667 3:0.25 4:0.47058824 5:0.6111 6:0.3529 7:0.125 8:0.0667 9:2.3875 10:0.0 11:0.0 12:0.0 13:0.0 14:0.75 15:0.75 16:0.443622400519656 17:0.4399999976158142 18:0.27226307 19:0.419861108 
32768.0 1:0.25 2:0.5 3:0.0 4:0.5263158 5:0.45 6:0.1579 7:0.0556 8:0.0 9:1.7133 10:0.0 11:0.0 12:0.0 13:0.0 14:0.8461538461538461 15:0.846 16:0.28857863310314535 17:0.43703705072402954 18:0.23106725 19:0.482569456 
32768.0 1:0.2857143 2:0.25 3:0.25 4:0.72727275 5:0.4483 6:0.3929 7:0.3333 8:0.3077 9:1.7633 10:0.0714 11:0.0 12:0.0 13:0.0 14:0.6875 15:0.688 16:0.6116917254755231 17:0.8242424130439758 18:0.32412866 19:0.633823574 
32768.0 1:0.25 2:0.5 3:0.0 4:0.57894737 5:0.6875 6:0.5333 7:0.4286 8:0.3846 9:2.7054 10:0.0656 11:0.0 12:0.0 13:0.0 14:0.5333333333333333 15:0.533 16:0.5790357634229341 17:0.6322580575942993 18:0.42879257 19:0.650183141 
32768.0 1:1.0 2:0.0 3:0.5 4:0.52380955 5:0.6 6:0.4211 7:0.3333 8:0.2353 9:2.3441 10:0.0 11:0.0 12:0.0 13:0.0 14:0.6923076923076923 15:0.692 16:0.5891479469175378 17:0.7259259223937988 18:0.37813853 19:0.740003586 
32768.0 1:0.33333334 2:0.33333334 3:0.0 4:1.0 5:0.6216 6:0.3889 7:0.2571 8:0.1765 9:2.6865 10:0.1846 11:0.0 12:0.0 13:0.0 14:0.6666666666666666 15:0.667 16:0.37026109319730344 17:0.46909090876579285 18:0.31377005 19:0.440098286 
